{"learner":{"attributes":{"scikit_learn":"{\"_estimator_type\": \"classifier\"}"},"feature_names":[],"feature_types":[],"gradient_booster":{"model":{"gbtree_model_param":{"num_parallel_tree":"1","num_trees":"100"},"iteration_indptr":[0,1,2,3,4,5,6,7,8,9,10,11,12,13,14,15,16,17,18,19,20,21,22,23,24,25,26,27,28,29,30,31,32,33,34,35,36,37,38,39,40,41,42,43,44,45,46,47,48,49,50,51,52,53,54,55,56,57,58,59,60,61,62,63,64,65,66,67,68,69,70,71,72,73,74,75,76,77,78,79,80,81,82,83,84,85,86,87,88,89,90,91,92,93,94,95,96,97,98,99,100],"tree_info":[0,0,0,0,0,0,0,0,0,0,0,0,0,0,0,0,0,0,0,0,0,0,0,0,0,0,0,0,0,0,0,0,0,0,0,0,0,0,0,0,0,0,0,0,0,0,0,0,0,0,0,0,0,0,0,0,0,0,0,0,0,0,0,0,0,0,0,0,0,0,0,0,0,0,0,0,0,0,0,0,0,0,0,0,0,0,0,0,0,0,0,0,0,0,0,0,0,0,0,0],"trees":[{"base_weights":[-3.032543E-1,-5.0820917E-1,9.1505164E-1,-2.0888227E-1,-9.2427856E-1,1.0578148E0,4.9367216E-1,-2.7224597E-1,4.005463E-1,-9.2806244E-1,8.227614E-1,9.3536127E-1,1.5738438E0,4.5456922E-1,1.8440886E0,-3.1307992E-1,5.815039E-1,6.452465E-1,-5.4184135E-2,-9.3195134E-1,8.7097585E-2,3.365626E-1,-5.4312672E-2,8.312401E-1,1.3471019E0,1.6267458E0,-2.588233E-2,5.1901007E-1,-2.1689793E-1,3.4384418E-1,7.991526E-1,-3.3524224E-1,1.2303904E0,6.338268E-1,-2.9329917E-1,5.1813275E-1,1.289006E0,-1.7450605E-1,1.0275488E0,-9.342141E-1,1.9056328E-1,7.733742E-1,1.6360561E0,1.4826182E0,4.085177E-1,1.698097E0,4.4065964E-1,-2.846285E-1,9.062567E-2,4.669524E-1,3.7286717E-1,-1.028619E-1,-2.5162092E-1,-1.1834445E-1,6.703586E-2,2.848962E-1,6.0836816E-1,2.579625E-1,9.5016204E-2,1.6994783E-1,-2.5980803E-1,4.3252376E-1,1.0835358E-1,-7.9167135E-2,8.849548E-2,2.0871142E-1,5.848908E-1,-2.8084433E-1,2.3862928E-1,2.0273715E-1,3.989574E-1,5.1386434E-1,2.7622348E-2,4.5817265E-1,-1.4154491E-1,7.557694E-2,3.0938095E-1,5.190514E-1,-2.0894046E-1,4.468309E-2,2.4115108E-1,-1.9655688E-1,5.5669956E-2,1.2460139E-1,3.7142038E-1,-6.0884815E-2,9.345943E-2],"categories":[],"categories_nodes":[],"categories_segments":[],"categories_sizes":[],"default_left":[0,0,0,0,0,0,0,0,0,0,0,0,0,0,0,0,0,0,0,0,0,0,0,0,0,0,0,0,0,0,0,0,0,0,0,0,0,0,0,0,0,0,0,0,0,0,0,0,0,0,0,0,0,0,0,0,0,0,0,0,0,0,0,0,0,0,0,0,0,0,0,0,0,0,0,0,0,0,0,0,0,0,0,0,0,0,0],"id":0,"left_children":[1,3,5,7,9,11,13,15,17,19,21,23,25,27,29,31,33,35,37,39,-1,-1,-1,41,43,45,47,49,51,-1,-1,53,55,57,-1,59,61,63,65,67,-1,69,71,73,75,77,79,81,-1,83,-1,85,-1,-1,-1,-1,-1,-1,-1,-1,-1,-1,-1,-1,-1,-1,-1,-1,-1,-1,-1,-1,-1,-1,-1,-1,-1,-1,-1,-1,-1,-1,-1,-1,-1,-1,-1],"loss_changes":[1.5831548E3,6.7560364E2,5.4408447E1,1.220262E2,1.5770264E1,4.1570312E1,1.14627075E1,9.990283E1,3.316636E1,1.1005859E1,1.8353329E0,2.2587402E1,1.09739685E1,9.966049E0,5.1034355E-1,9.381531E1,1.12999115E1,1.517926E1,1.3857708E1,8.602905E0,0E0,0E0,0E0,1.9411774E1,1.3386063E1,9.83493E0,5.2041036E-1,7.260643E0,1.3777757E0,0E0,0E0,8.920633E1,6.7758675E0,8.850761E0,0E0,1.1428017E1,3.9094925E0,4.0824785E0,1.9068708E0,8.289185E0,0E0,2.1697144E1,3.268486E0,9.070847E0,1.2282708E0,1.0237793E1,7.7513194E-1,7.098948E-1,0E0,7.2754707E0,0E0,8.3410466E-1,0E0,0E0,0E0,0E0,0E0,0E0,0E0,0E0,0E0,0E0,0E0,0E0,0E0,0E0,0E0,0E0,0E0,0E0,0E0,0E0,0E0,0E0,0E0,0E0,0E0,0E0,0E0,0E0,0E0,0E0,0E0,0E0,0E0,0E0,0E0],"parents":[2147483647,0,0,1,1,2,2,3,3,4,4,5,5,6,6,7,7,8,8,9,9,10,10,11,11,12,12,13,13,14,14,15,15,16,16,17,17,18,18,19,19,23,23,24,24,25,25,26,26,27,27,28,28,31,31,32,32,33,33,35,35,36,36,37,37,38,38,39,39,41,41,42,42,43,43,44,44,45,45,46,46,47,47,49,49,51,51],"right_children":[2,4,6,8,10,12,14,16,18,20,22,24,26,28,30,32,34,36,38,40,-1,-1,-1,42,44,46,48,50,52,-1,-1,54,56,58,-1,60,62,64,66,68,-1,70,72,74,76,78,80,82,-1,84,-1,86,-1,-1,-1,-1,-1,-1,-1,-1,-1,-1,-1,-1,-1,-1,-1,-1,-1,-1,-1,-1,-1,-1,-1,-1,-1,-1,-1,-1,-1,-1,-1,-1,-1,-1,-1],"split_conditions":[1E0,1E0,1E0,1E0,1E0,1E0,1E0,1E0,1E0,1E0,1E0,1E0,1E0,1E0,1E0,1E0,1E0,1E0,1E0,1E0,8.7097585E-2,3.365626E-1,-5.4312672E-2,1E0,1E0,1E0,1E0,1E0,1E0,3.4384418E-1,7.991526E-1,1E0,1E0,1E0,-2.9329917E-1,1E0,1E0,1E0,1E0,1E0,1.9056328E-1,1E0,1E0,1E0,1E0,1E0,1E0,1E0,9.062567E-2,1E0,3.7286717E-1,1E0,-2.5162092E-1,-1.1834445E-1,6.703586E-2,2.848962E-1,6.0836816E-1,2.579625E-1,9.5016204E-2,1.6994783E-1,-2.5980803E-1,4.3252376E-1,1.0835358E-1,-7.9167135E-2,8.849548E-2,2.0871142E-1,5.848908E-1,-2.8084433E-1,2.3862928E-1,2.0273715E-1,3.989574E-1,5.1386434E-1,2.7622348E-2,4.5817265E-1,-1.4154491E-1,7.557694E-2,3.0938095E-1,5.190514E-1,-2.0894046E-1,4.468309E-2,2.4115108E-1,-1.9655688E-1,5.5669956E-2,1.2460139E-1,3.7142038E-1,-6.0884815E-2,9.345943E-2],"split_indices":[850,803,924,836,109,932,519,879,924,1002,924,931,914,912,932,717,456,918,929,992,0,0,0,929,912,921,701,916,725,0,0,892,930,924,0,565,930,916,915,903,0,930,916,433,49,49,199,518,0,928,0,932,0,0,0,0,0,0,0,0,0,0,0,0,0,0,0,0,0,0,0,0,0,0,0,0,0,0,0,0,0,0,0,0,0,0,0],"split_type":[0,0,0,0,0,0,0,0,0,0,0,0,0,0,0,0,0,0,0,0,0,0,0,0,0,0,0,0,0,0,0,0,0,0,0,0,0,0,0,0,0,0,0,0,0,0,0,0,0,0,0,0,0,0,0,0,0,0,0,0,0,0,0,0,0,0,0,0,0,0,0,0,0,0,0,0,0,0,0,0,0,0,0,0,0,0,0],"sum_hessian":[6.337423E3,5.425309E3,9.121136E2,3.156195E3,2.2691143E3,6.801639E2,2.3194968E2,2.859445E3,2.9674982E2,2.264678E3,4.436196E0,5.519895E2,1.2817438E2,2.267213E2,5.2283735E0,2.729528E3,1.2991716E2,1.9265765E2,1.0409217E2,2.2577068E3,6.971165E0,3.327147E0,1.109049E0,4.4298584E2,1.0900367E2,1.2405505E2,4.1193247E0,2.0707529E2,1.9646011E1,4.1193247E0,1.109049E0,2.6916619E3,3.78661E1,1.2627315E2,3.6440182E0,1.6239645E2,3.0261194E1,9.44276E1,9.66457E0,2.254855E3,2.8518403E0,4.151012E2,2.788466E1,9.474447E1,1.4259201E1,1.1660858E2,7.4464717E0,2.3765335E0,1.7427913E0,1.9471732E2,1.2357974E1,1.7586348E1,2.0596623E0,2.4338872E3,2.5777466E2,2.962745E1,8.238649E0,7.2721924E1,5.3551224E1,1.5748495E2,4.911503E0,2.5508127E1,4.753067E0,7.969309E1,1.4734508E1,8.397085E0,1.2674845E0,2.2527954E3,2.0596623E0,3.550541E2,6.004708E1,2.645874E1,1.4259201E0,9.284325E1,1.9012268E0,1.251641E1,1.7427913E0,1.15341095E2,1.2674845E0,4.911503E0,2.534969E0,1.109049E0,1.2674845E0,1.839437E2,1.0773619E1,1.4576073E1,3.0102758E0],"tree_param":{"num_deleted":"0","num_feature":"1261","num_nodes":"87","size_leaf_vector":"1"}},{"base_weights":[-2.3964979E-1,2.0807492E-2,-8.0191106E-1,-1.5698837E-1,5.2995265E-1,-8.058043E-1,5.4298466E-1,-7.322056E-2,-5.418766E-1,5.9590286E-1,3.1675035E-1,-8.0762804E-1,3.69592E-1,2.1718277E-1,-4.668997E-2,-2.9993301E-2,-9.0155333E-1,-6.144314E-1,2.0036354E0,6.3512003E-1,1.9546834E-1,2.8933597E-1,1.166066E0,-8.116722E-1,6.0831983E-2,1.14390805E-1,-2.7706814E-1,-9.148273E-1,7.7905625E-2,-6.7638683E-1,4.9363866E-1,6.725538E-1,1.2254099E-1,5.974481E-1,1.0008618E0,2.9403633E-1,-4.8550406E-1,2.6137683E-1,1.144978E0,4.3775803E-1,-7.618177E-2,-8.1350845E-1,2.784544E-1,6.2357385E-2,-1.9054535E-1,-8.6590506E-2,6.7724705E-1,-2.7983603E-1,-3.2174192E-2,-2.2488646E-1,3.9359197E-1,1.8329743E-1,-9.517733E-2,3.1227696E-1,1.6082981E-1,1.10916555E-1,-1.03884496E-1,-1.7466007E-1,-4.386816E-2,6.944637E-2,3.0468175E-1,3.6566186E-1,1.0274283E-1,-2.4476455E-1,1.3429983E-1],"categories":[],"categories_nodes":[],"categories_segments":[],"categories_sizes":[],"default_left":[0,0,0,0,0,0,0,0,0,0,0,0,0,0,0,0,0,0,0,0,0,0,0,0,0,0,0,0,0,0,0,0,0,0,0,0,0,0,0,0,0,0,0,0,0,0,0,0,0,0,0,0,0,0,0,0,0,0,0,0,0,0,0,0,0],"id":1,"left_children":[1,3,5,7,9,11,13,15,17,19,21,23,-1,-1,-1,25,27,29,31,33,35,37,39,41,-1,43,45,47,-1,49,-1,-1,-1,51,53,55,57,59,61,-1,-1,63,-1,-1,-1,-1,-1,-1,-1,-1,-1,-1,-1,-1,-1,-1,-1,-1,-1,-1,-1,-1,-1,-1,-1],"loss_changes":[8.776802E2,3.7094052E2,1.0371948E1,9.788405E1,1.4723633E1,8.027466E0,8.80553E-1,8.932827E1,1.01465164E2,1.2578369E1,5.546257E0,7.892334E0,0E0,0E0,0E0,8.4676956E1,2.144867E0,7.510162E1,4.8885803E0,9.5466E0,5.082717E0,5.588768E0,3.522129E0,6.7734375E0,0E0,1.0510006E2,2.6317154E1,1.6775131E0,0E0,7.598355E1,0E0,0E0,0E0,8.493942E0,6.9454956E-1,3.273921E0,2.325356E-1,5.16696E0,2.6851654E-2,0E0,0E0,5.999634E0,0E0,0E0,0E0,0E0,0E0,0E0,0E0,0E0,0E0,0E0,0E0,0E0,0E0,0E0,0E0,0E0,0E0,0E0,0E0,0E0,0E0,0E0,0E0],"parents":[2147483647,0,0,1,1,2,2,3,3,4,4,5,5,6,6,7,7,8,8,9,9,10,10,11,11,15,15,16,16,17,17,18,18,19,19,20,20,21,21,22,22,23,23,25,25,26,26,27,27,29,29,33,33,34,34,35,35,36,36,37,37,38,38,41,41],"right_children":[2,4,6,8,10,12,14,16,18,20,22,24,-1,-1,-1,26,28,30,32,34,36,38,40,42,-1,44,46,48,-1,50,-1,-1,-1,52,54,56,58,60,62,-1,-1,64,-1,-1,-1,-1,-1,-1,-1,-1,-1,-1,-1,-1,-1,-1,-1,-1,-1,-1,-1,-1,-1,-1,-1],"split_conditions":[1E0,1E0,1E0,1E0,1E0,1E0,1E0,1E0,1E0,1E0,1E0,1E0,3.69592E-1,2.1718277E-1,-4.668997E-2,1E0,1E0,1E0,1E0,1E0,1E0,1E0,1E0,1E0,6.0831983E-2,1E0,1E0,1E0,7.7905625E-2,1E0,4.9363866E-1,6.725538E-1,1.2254099E-1,1E0,1E0,1E0,1E0,1E0,1E0,4.3775803E-1,-7.618177E-2,1E0,2.784544E-1,6.2357385E-2,-1.9054535E-1,-8.6590506E-2,6.7724705E-1,-2.7983603E-1,-3.2174192E-2,-2.2488646E-1,3.9359197E-1,1.8329743E-1,-9.517733E-2,3.1227696E-1,1.6082981E-1,1.10916555E-1,-1.03884496E-1,-1.7466007E-1,-4.386816E-2,6.944637E-2,3.0468175E-1,3.6566186E-1,1.0274283E-1,-2.4476455E-1,1.3429983E-1],"split_indices":[803,850,109,884,924,717,924,860,422,912,519,1002,0,0,0,924,912,429,931,717,674,45,930,487,0,890,597,931,0,42,0,0,0,518,929,65,932,905,932,0,0,992,0,0,0,0,0,0,0,0,0,0,0,0,0,0,0,0,0,0,0,0,0,0,0],"split_type":[0,0,0,0,0,0,0,0,0,0,0,0,0,0,0,0,0,0,0,0,0,0,0,0,0,0,0,0,0,0,0,0,0,0,0,0,0,0,0,0,0,0,0,0,0,0,0,0,0,0,0,0,0,0,0,0,0,0,0,0,0,0,0,0,0],"sum_hessian":[5.992126E3,4.0957893E3,1.8963368E3,3.036219E3,1.0595702E3,1.8912627E3,5.074048E0,2.4945015E3,5.417178E2,8.078742E2,2.5169603E2,1.8901748E3,1.087968E0,4.0013566E0,1.0726916E0,2.371765E3,1.2273638E2,5.274427E2,1.4275095E1,7.352775E2,7.259665E1,2.4512453E2,6.5715117E0,1.8828352E3,7.339496E0,1.4973119E3,8.7445306E2,1.2155905E2,1.1773274E0,5.140506E2,1.3392099E1,1.2067606E1,2.2074888E0,6.690028E2,6.62747E1,6.391362E1,8.683027E0,2.386324E2,6.4921217E0,5.4242115E0,1.1473001E0,1.8813821E3,1.4531423E0,1.3319426E3,1.6536923E2,8.713626E2,3.0904844E0,1.187629E2,2.7961526E0,4.9639066E2,1.765991E1,6.5956915E2,9.433678E0,5.987401E1,6.4006896E0,5.7535526E1,6.3780937E0,6.199986E0,2.4830408E0,2.3079333E2,7.8390694E0,5.4696345E0,1.0224873E0,1.8782007E3,3.1813855E0],"tree_param":{"num_deleted":"0","num_feature":"1261","num_nodes":"65","size_leaf_vector":"1"}},{"base_weights":[-1.8786089E-1,8.481328E-3,-6.9034636E-1,-1.1962142E-1,3.3959827E-1,-6.413766E-1,-8.0406064E-1,-5.5465266E-2,-4.4350165E-1,3.5090703E-1,-3.3853036E-1,-6.4504623E-1,3.2114685E-1,-8.0747145E-1,1.03946365E-1,1.9765148E-2,-3.879253E-1,-5.1977974E-1,1.4538893E0,3.2494858E-1,6.14806E-1,-4.7988504E-2,-4.4997716E-1,-6.491796E-1,2.2485355E-1,-8.1082E-1,8.159317E-2,6.3457504E-2,-7.875837E-1,-3.976917E-1,3.7966338E-1,-5.532982E-1,8.7981516E-1,1.6958665E0,4.4485798E-1,3.051354E-1,6.3059103E-1,6.5737635E-1,2.5793833E-1,-1.1361331E-3,-4.3118484E-2,-5.2402097E-1,5.608809E-2,-6.5655434E-1,5.3283527E-2,-8.164097E-1,-4.099997E-2,3.9676845E-2,-1.3140342E-1,-2.4080907E-1,7.882828E-2,-9.221986E-2,-1.5330942E-1,-1.7928329E-1,5.6177926E-1,5.4728293E-1,1.21218644E-1,-3.7418827E-2,2.602008E-1,7.810031E-2,1.4267004E-1,2.0278025E-1,-2.3585416E-1,1.8120083E-1,2.6090866E-1,1.1160939E-1,1.3879021E-2,-2.3996489E-1,-1.0255881E-1,-1.9849075E-1,1.5017961E-1,-2.4662934E-1,-4.099997E-2],"categories":[],"categories_nodes":[],"categories_segments":[],"categories_sizes":[],"default_left":[0,0,0,0,0,0,0,0,0,0,0,0,0,0,0,0,0,0,0,0,0,0,0,0,0,0,0,0,0,0,0,0,0,0,0,0,0,0,0,0,0,0,0,0,0,0,0,0,0,0,0,0,0,0,0,0,0,0,0,0,0,0,0,0,0,0,0,0,0,0,0,0,0],"id":2,"left_children":[1,3,5,7,9,11,13,15,17,19,21,23,-1,25,-1,27,29,31,33,35,37,39,41,43,-1,45,-1,47,49,51,-1,53,-1,55,57,59,61,63,65,-1,-1,67,-1,69,-1,71,-1,-1,-1,-1,-1,-1,-1,-1,-1,-1,-1,-1,-1,-1,-1,-1,-1,-1,-1,-1,-1,-1,-1,-1,-1,-1,-1],"loss_changes":[5.60544E2,1.7336766E2,8.373474E0,6.121313E1,8.862381E0,7.730896E0,2.1499634E0,6.155977E1,7.125605E1,7.485977E0,6.0044956E-1,6.9364624E0,0E0,1.9390869E0,0E0,7.087578E1,7.8374557E0,5.589982E1,3.9065056E0,6.00618E0,1.3398438E0,2.6731282E-2,7.4716616E-1,6.922516E0,0E0,1.6754761E0,0E0,6.580406E1,1.848423E0,4.471245E0,0E0,5.11445E1,0E0,1.7579689E0,1.3229207E0,7.230789E0,4.4742985E0,4.7330856E-1,2.7826267E-1,0E0,0E0,3.594451E-1,0E0,6.837738E0,0E0,1.7054138E0,0E0,0E0,0E0,0E0,0E0,0E0,0E0,0E0,0E0,0E0,0E0,0E0,0E0,0E0,0E0,0E0,0E0,0E0,0E0,0E0,0E0,0E0,0E0,0E0,0E0,0E0,0E0],"parents":[2147483647,0,0,1,1,2,2,3,3,4,4,5,5,6,6,7,7,8,8,9,9,10,10,11,11,13,13,15,15,16,16,17,17,18,18,19,19,20,20,21,21,22,22,23,23,25,25,27,27,28,28,29,29,31,31,33,33,34,34,35,35,36,36,37,37,38,38,41,41,43,43,45,45],"right_children":[2,4,6,8,10,12,14,16,18,20,22,24,-1,26,-1,28,30,32,34,36,38,40,42,44,-1,46,-1,48,50,52,-1,54,-1,56,58,60,62,64,66,-1,-1,68,-1,70,-1,72,-1,-1,-1,-1,-1,-1,-1,-1,-1,-1,-1,-1,-1,-1,-1,-1,-1,-1,-1,-1,-1,-1,-1,-1,-1,-1,-1],"split_conditions":[1E0,1E0,1E0,1E0,1E0,1E0,1E0,1E0,1E0,1E0,1E0,1E0,3.2114685E-1,1E0,1.03946365E-1,1E0,1E0,1E0,1E0,1E0,1E0,1E0,1E0,1E0,2.2485355E-1,1E0,8.159317E-2,1E0,1E0,1E0,3.7966338E-1,1E0,8.7981516E-1,1E0,1E0,1E0,1E0,1E0,1E0,-1.1361331E-3,-4.3118484E-2,1E0,5.608809E-2,1E0,5.3283527E-2,1E0,-4.099997E-2,3.9676845E-2,-1.3140342E-1,-2.4080907E-1,7.882828E-2,-9.221986E-2,-1.5330942E-1,-1.7928329E-1,5.6177926E-1,5.4728293E-1,1.21218644E-1,-3.7418827E-2,2.602008E-1,7.810031E-2,1.4267004E-1,2.0278025E-1,-2.3585416E-1,1.8120083E-1,2.6090866E-1,1.1160939E-1,1.3879021E-2,-2.3996489E-1,-1.0255881E-1,-1.9849075E-1,1.5017961E-1,-2.4662934E-1,-4.099997E-2],"split_indices":[803,850,924,884,936,927,394,842,425,717,922,993,0,504,0,860,399,419,932,470,929,924,626,621,0,114,0,890,952,924,0,50,0,929,924,932,1006,930,924,0,0,6,0,109,0,304,0,0,0,0,0,0,0,0,0,0,0,0,0,0,0,0,0,0,0,0,0,0,0,0,0,0,0],"split_type":[0,0,0,0,0,0,0,0,0,0,0,0,0,0,0,0,0,0,0,0,0,0,0,0,0,0,0,0,0,0,0,0,0,0,0,0,0,0,0,0,0,0,0,0,0,0,0,0,0,0,0,0,0,0,0,0,0,0,0,0,0,0,0,0,0,0,0,0,0,0,0,0,0],"sum_hessian":[5.680565E3,4.085264E3,1.5953014E3,2.9461096E3,1.1391542E3,1.1197386E3,4.755627E2,2.459991E3,4.8611865E2,1.1209434E3,1.8210752E1,1.1179653E3,1.7733266E0,4.7445438E2,1.1083292E0,2.0068201E3,4.531709E2,4.680292E2,1.8089449E1,1.0225878E3,9.835556E1,5.445341E0,1.2765412E1,1.1151945E3,2.7708228E0,4.7323523E2,1.2191621E0,1.9046643E3,1.02155815E2,4.5126492E2,1.9059652E0,4.6436072E2,3.6684895E0,1.404146E1,4.0479884E0,9.622111E2,6.037673E1,8.712092E1,1.1234636E1,4.4365973E0,1.0087439E0,1.1594799E1,1.1706125E0,1.1055392E3,9.655277E0,4.691344E2,4.1008177E0,1.6755278E3,2.2913649E2,1.009392E2,1.2166129E0,2.532362E2,1.9802873E2,4.5677072E2,7.589978E0,1.2396964E1,1.6444952E0,2.0239942E0,2.0239942E0,7.639264E2,1.9828474E2,5.9011017E1,1.3657146E0,7.26921E1,1.4428825E1,6.8077126E0,4.4269233E0,3.26266E0,8.33214E0,1.101132E3,4.4072523E0,4.6503357E2,4.1008177E0],"tree_param":{"num_deleted":"0","num_feature":"1261","num_nodes":"73","size_leaf_vector":"1"}},{"base_weights":[-1.4526899E-1,2.227783E-3,-5.850251E-1,-9.0195075E-2,2.2587007E-1,-5.3598285E-1,-7.0333457E-1,-1.0754709E-1,1.0609542E0,2.3270485E-1,-1.5160583E-1,-5.43018E-1,1.5026073E-1,-7.7574766E-1,-6.079014E-1,-7.24968E-2,-6.4085704E-1,1.3471224E0,6.6856855E-1,2.2870429E-1,5.1392573E-1,-5.5342346E-1,1.445761E-1,-7.828605E-1,7.51133E-2,-6.324728E-1,-1.8248046E-2,2.651107E-2,-2.5331372E-1,-7.313695E-1,5.3808844E-1,1.099604E0,6.004757E-1,2.2069651E-1,-6.696239E-2,2.3417918E-1,-6.665081E-1,-5.6800145E-1,-6.291297E-2,7.716088E-2,-1.8569423E-1,-7.9479706E-1,-3.2042358E-2,-6.727385E-1,-2.4406537E-1,1.3678673E-2,-3.3227223E-1,-8.014101E-2,3.7226433E-1,-2.4177726E-1,5.816357E-1,2.2879496E-1,5.2133024E-1,7.220812E-2,-1.3683811E-1,-1.3279608E-1,-2.7520165E-1,-1.7648233E-1,-6.139258E-2,-3.857063E-2,2.4110977E-1,-2.4142285E-1,-4.880649E-3,-2.1947664E-1,-8.855717E-2,-5.3969827E-2,-1.8161215E-1],"categories":[],"categories_nodes":[],"categories_segments":[],"categories_sizes":[],"default_left":[0,0,0,0,0,0,0,0,0,0,0,0,0,0,0,0,0,0,0,0,0,0,0,0,0,0,0,0,0,0,0,0,0,0,0,0,0,0,0,0,0,0,0,0,0,0,0,0,0,0,0,0,0,0,0,0,0,0,0,0,0,0,0,0,0,0,0],"id":3,"left_children":[1,3,5,7,9,11,13,15,17,19,-1,21,-1,23,25,27,29,31,33,35,-1,37,39,41,-1,43,-1,45,47,49,-1,51,-1,-1,-1,53,55,57,59,-1,-1,61,-1,63,65,-1,-1,-1,-1,-1,-1,-1,-1,-1,-1,-1,-1,-1,-1,-1,-1,-1,-1,-1,-1,-1,-1],"loss_changes":[3.5179175E2,8.398884E1,7.5268555E0,5.7545536E1,6.0559235E0,7.3273315E0,2.2649689E0,5.2917572E1,3.9039726E0,6.584034E0,0E0,6.9570312E0,0E0,1.8128967E0,2.3201904E0,4.7623356E1,3.9786583E1,1.6476097E0,1.3625498E0,5.919201E0,0E0,6.73645E0,1.4596341E0,1.6924591E0,0E0,2.4603577E0,0E0,3.7268936E1,1.9770992E1,3.5217323E1,0E0,2.8586369E0,0E0,0E0,0E0,5.368866E0,9.867668E-3,6.6538086E0,1.7225974E0,0E0,0E0,1.6615143E0,0E0,3.1498108E0,2.9292345E-1,0E0,0E0,0E0,0E0,0E0,0E0,0E0,0E0,0E0,0E0,0E0,0E0,0E0,0E0,0E0,0E0,0E0,0E0,0E0,0E0,0E0,0E0],"parents":[2147483647,0,0,1,1,2,2,3,3,4,4,5,5,6,6,7,7,8,8,9,9,11,11,13,13,14,14,15,15,16,16,17,17,18,18,19,19,21,21,22,22,23,23,25,25,27,27,28,28,29,29,31,31,35,35,36,36,37,37,38,38,41,41,43,43,44,44],"right_children":[2,4,6,8,10,12,14,16,18,20,-1,22,-1,24,26,28,30,32,34,36,-1,38,40,42,-1,44,-1,46,48,50,-1,52,-1,-1,-1,54,56,58,60,-1,-1,62,-1,64,66,-1,-1,-1,-1,-1,-1,-1,-1,-1,-1,-1,-1,-1,-1,-1,-1,-1,-1,-1,-1,-1,-1],"split_conditions":[1E0,1E0,1E0,1E0,1E0,1E0,1E0,1E0,1E0,1E0,-1.5160583E-1,1E0,1.5026073E-1,1E0,1E0,1E0,1E0,1E0,1E0,1E0,5.1392573E-1,1E0,1E0,1E0,7.51133E-2,1E0,-1.8248046E-2,1E0,1E0,1E0,5.3808844E-1,1E0,6.004757E-1,2.2069651E-1,-6.696239E-2,1E0,1E0,1E0,1E0,7.716088E-2,-1.8569423E-1,1E0,-3.2042358E-2,1E0,1E0,1.3678673E-2,-3.3227223E-1,-8.014101E-2,3.7226433E-1,-2.4177726E-1,5.816357E-1,2.2879496E-1,5.2133024E-1,7.220812E-2,-1.3683811E-1,-1.3279608E-1,-2.7520165E-1,-1.7648233E-1,-6.139258E-2,-3.857063E-2,2.4110977E-1,-2.4142285E-1,-4.880649E-3,-2.1947664E-1,-8.855717E-2,-5.3969827E-2,-1.8161215E-1],"split_indices":[803,850,924,717,674,1002,922,890,924,981,0,688,0,772,929,924,597,931,928,38,0,930,932,114,0,930,0,438,429,765,0,930,0,0,0,940,931,931,713,0,0,741,0,931,633,0,0,0,0,0,0,0,0,0,0,0,0,0,0,0,0,0,0,0,0,0,0],"split_type":[0,0,0,0,0,0,0,0,0,0,0,0,0,0,0,0,0,0,0,0,0,0,0,0,0,0,0,0,0,0,0,0,0,0,0,0,0,0,0,0,0,0,0,0,0,0,0,0,0,0,0,0,0,0,0,0,0,0,0,0,0,0,0,0,0,0,0],"sum_hessian":[5.422625E3,4.0614019E3,1.361223E3,2.8742007E3,1.1872012E3,9.6622797E2,3.9499503E2,2.8324124E3,4.1788204E1,1.1768826E3,1.0318617E1,9.601893E2,6.0387015E0,2.2053111E2,1.7446393E2,2.658806E3,1.7360658E2,2.275774E1,1.9030466E1,1.1748622E3,2.020437E0,9.4606744E2,1.4121813E1,2.192484E2,1.2827103E0,1.6681543E2,7.648493E0,1.7186161E3,9.401897E2,1.6805788E2,5.5486956E0,1.8457327E1,4.300412E0,1.7861826E1,1.1686393E0,1.1684546E3,6.4075584E0,9.186084E2,2.7459057E1,1.2884469E1,1.2373444E0,2.1527187E2,3.976539E0,1.5048302E2,1.6332417E1,1.6911176E3,2.7498512E1,9.323853E2,7.8043776E0,1.6417212E2,3.885758E0,1.3515913E1,4.941415E0,1.158176E3,1.0278591E1,4.8467836E0,1.5607749E0,8.6947845E2,4.9129955E1,2.6316893E1,1.1421641E0,2.125232E2,2.748665E0,1.2937843E2,2.110459E1,1.5141328E1,1.1910882E0],"tree_param":{"num_deleted":"0","num_feature":"1261","num_nodes":"67","size_leaf_vector":"1"}},{"base_weights":[-1.1072655E-1,-4.2960802E-4,-4.8638374E-1,3.909226E-2,-3.294812E-1,-4.9168164E-1,2.2366363E-1,5.7844058E-2,-7.867242E-1,-4.0181226E-1,1.2766184E0,-4.983291E-1,3.8052657E-1,1.0230244E-1,-2.7796283E-1,-3.4292316E-1,-3.5866836E-1,-4.7473595E-1,9.96745E-1,4.060419E-1,1.3708206E-1,-4.5130172E-1,-6.163924E-1,1.625339E-1,-3.8199984E-3,1.2386648E-1,-6.6908085E-1,-2.8669122E-1,2.631191E-1,-4.0981284E-1,2.5983936E-1,-5.57039E-1,8.096284E-1,1.2806358E0,-1.8765521E-1,-4.563008E-1,2.865272E-1,-5.5927306E-1,-7.6981103E-1,4.0736396E-2,-3.2202324E-1,-2.0986794E-1,1.906611E-2,-8.916405E-2,1.8433891E-1,-1.6062406E-1,3.0450398E-2,-1.8895186E-1,2.590931E-1,2.6634642E-1,1.08307324E-1,4.2989603E-1,2.0317273E-1,-9.220419E-2,-1.6753394E-2,-1.3126698E-1,-2.5126502E-1,-1.8082412E-1,-7.675274E-2,-2.3625806E-1,6.0008448E-2],"categories":[],"categories_nodes":[],"categories_segments":[],"categories_sizes":[],"default_left":[0,0,0,0,0,0,0,0,0,0,0,0,0,0,0,0,0,0,0,0,0,0,0,0,0,0,0,0,0,0,0,0,0,0,0,0,0,0,0,0,0,0,0,0,0,0,0,0,0,0,0,0,0,0,0,0,0,0,0,0,0],"id":4,"left_children":[1,3,5,7,9,11,-1,13,15,17,19,21,23,25,27,29,-1,31,33,-1,-1,35,37,-1,-1,39,41,43,-1,45,-1,47,49,51,53,55,-1,57,59,-1,-1,-1,-1,-1,-1,-1,-1,-1,-1,-1,-1,-1,-1,-1,-1,-1,-1,-1,-1,-1,-1],"loss_changes":[2.162779E2,5.2501244E1,8.098999E0,5.5858532E1,5.0802612E1,7.0328064E0,0E0,5.2656334E1,1.4122082E1,4.2798088E1,5.7183266E-1,6.2278137E0,6.08976E-1,5.187671E1,4.409113E0,3.574192E0,0E0,4.221694E1,7.2640953E0,0E0,0E0,6.3536835E0,2.4705734E0,0E0,0E0,4.3392178E1,1.9387627E0,4.0709343E0,0E0,2.520321E0,0E0,3.9009056E1,5.284195E-1,5.902748E-1,6.0316652E-2,5.6321716E0,0E0,3.0763092E0,1.6550674E0,0E0,0E0,0E0,0E0,0E0,0E0,0E0,0E0,0E0,0E0,0E0,0E0,0E0,0E0,0E0,0E0,0E0,0E0,0E0,0E0,0E0,0E0],"parents":[2147483647,0,0,1,1,2,2,3,3,4,4,5,5,7,7,8,8,9,9,10,10,11,11,12,12,13,13,14,14,15,15,17,17,18,18,21,21,22,22,25,25,26,26,27,27,29,29,31,31,32,32,33,33,34,34,35,35,37,37,38,38],"right_children":[2,4,6,8,10,12,-1,14,16,18,20,22,24,26,28,30,-1,32,34,-1,-1,36,38,-1,-1,40,42,44,-1,46,-1,48,50,52,54,56,-1,58,60,-1,-1,-1,-1,-1,-1,-1,-1,-1,-1,-1,-1,-1,-1,-1,-1,-1,-1,-1,-1,-1,-1],"split_conditions":[1E0,1E0,1E0,1E0,1E0,1E0,2.2366363E-1,1E0,1E0,1E0,1E0,1E0,1E0,1E0,1E0,1E0,-3.5866836E-1,1E0,1E0,4.060419E-1,1.3708206E-1,1E0,1E0,1.625339E-1,-3.8199984E-3,1E0,1E0,1E0,2.631191E-1,1E0,2.5983936E-1,1E0,1E0,1E0,1E0,1E0,2.865272E-1,1E0,1E0,4.0736396E-2,-3.2202324E-1,-2.0986794E-1,1.906611E-2,-8.916405E-2,1.8433891E-1,-1.6062406E-1,3.0450398E-2,-1.8895186E-1,2.590931E-1,2.6634642E-1,1.08307324E-1,4.2989603E-1,2.0317273E-1,-9.220419E-2,-1.6753394E-2,-1.3126698E-1,-2.5126502E-1,-1.8082412E-1,-7.675274E-2,-2.3625806E-1,6.0008448E-2],"split_indices":[803,884,1007,911,422,741,0,842,835,42,931,924,924,860,399,929,0,425,929,0,0,992,920,0,0,639,934,26,0,267,0,429,932,924,924,633,0,932,772,0,0,0,0,0,0,0,0,0,0,0,0,0,0,0,0,0,0,0,0,0,0],"split_type":[0,0,0,0,0,0,0,0,0,0,0,0,0,0,0,0,0,0,0,0,0,0,0,0,0,0,0,0,0,0,0,0,0,0,0,0,0,0,0,0,0,0,0,0,0,0,0,0,0,0,0,0,0,0,0,0,0,0,0,0,0],"sum_hessian":[5.2188423E3,4.0350964E3,1.183746E3,3.6032026E3,4.3189377E2,1.1792754E3,4.470584E0,3.5241106E3,7.909194E1,4.1399905E2,1.789472E1,1.1707811E3,8.494339E0,3.1127063E3,4.114043E2,3.8806E1,4.0285942E1,3.941099E2,1.9889154E1,1.576531E1,2.1294105E0,8.407236E2,3.3005746E2,5.756337E0,2.7380023E0,3.0288735E3,8.383281E1,4.0906482E2,2.3394651E0,3.7398037E1,1.4079605E0,3.709081E2,2.3201794E1,1.5978087E1,3.9110665E0,8.3841895E2,2.3046365E0,2.438974E2,8.616008E1,2.9998896E3,2.8983847E1,8.052786E1,3.304953E0,4.0500598E2,4.058839E0,2.9985245E1,7.4127936E0,3.5335757E2,1.7550549E1,1.892418E1,4.277614E0,1.1659337E1,4.31875E0,1.3518072E0,2.5592592E0,8.0117664E2,3.724231E1,2.1246944E2,3.1427965E1,8.479906E1,1.3610184E0],"tree_param":{"num_deleted":"0","num_feature":"1261","num_nodes":"61","size_leaf_vector":"1"}},{"base_weights":[-8.460688E-2,-3.2812562E-3,-3.9477384E-1,5.236225E-3,-1.1609856E0,-3.977266E-1,4.0101713E-1,2.4500309E-2,-4.8647133E-1,-3.5643008E-1,-8.038167E-2,-4.029694E-1,1.8333188E-1,3.300936E-2,-3.2843363E-1,-3.0796272E-1,-3.365923E-1,-4.0597138E-1,3.667491E-1,4.1476414E-2,-3.1915748E-1,-4.084113E-1,8.849247E-1,-3.9367294E-1,-8.590246E-1,3.0000867E-2,-2.6486682E-2,-1.3593408E-1,3.125496E-1,3.2797346E-1,-7.80487E-2,-1.13814496E-1,-2.4281348E-1,-2.6534986E-1,-8.3881505E-2],"categories":[],"categories_nodes":[],"categories_segments":[],"categories_sizes":[],"default_left":[0,0,0,0,0,0,0,0,0,0,0,0,0,0,0,0,0,0,0,0,0,0,0,0,0,0,0,0,0,0,0,0,0,0,0],"id":5,"left_children":[1,3,5,7,9,11,-1,13,15,-1,-1,17,-1,19,-1,21,-1,23,-1,25,-1,27,29,31,33,-1,-1,-1,-1,-1,-1,-1,-1,-1,-1],"loss_changes":[1.2758655E2,3.95315E1,5.9036713E0,3.77125E1,3.9065552E-1,5.798233E0,0E0,3.652249E1,1.6682323E1,0E0,0E0,5.5949097E0,0E0,3.5363995E1,0E0,1.4568065E1,0E0,5.4771576E0,0E0,2.8677982E1,0E0,7.6057873E0,2.556346E0,5.740631E0,1.473484E-1,0E0,0E0,0E0,0E0,0E0,0E0,0E0,0E0,0E0,0E0],"parents":[2147483647,0,0,1,1,2,2,3,3,4,4,5,5,7,7,8,8,11,11,13,13,15,15,17,17,19,19,21,21,22,22,23,23,24,24],"right_children":[2,4,6,8,10,12,-1,14,16,-1,-1,18,-1,20,-1,22,-1,24,-1,26,-1,28,30,32,34,-1,-1,-1,-1,-1,-1,-1,-1,-1,-1],"split_conditions":[1E0,1E0,1E0,1E0,1E0,1E0,4.0101713E-1,1E0,1E0,-3.5643008E-1,-8.038167E-2,1E0,1.8333188E-1,1E0,-3.2843363E-1,1E0,-3.365923E-1,1E0,3.667491E-1,1E0,-3.1915748E-1,1E0,1E0,1E0,1E0,3.0000867E-2,-2.6486682E-2,-1.3593408E-1,3.125496E-1,3.2797346E-1,-7.80487E-2,-1.13814496E-1,-2.4281348E-1,-2.6534986E-1,-8.3881505E-2],"split_indices":[803,919,717,835,451,109,0,368,911,0,0,487,0,438,0,931,0,148,0,924,0,86,912,293,939,0,0,0,0,0,0,0,0,0,0],"split_type":[0,0,0,0,0,0,0,0,0,0,0,0,0,0,0,0,0,0,0,0,0,0,0,0,0,0,0,0,0,0,0,0,0,0,0],"sum_hessian":[5.0570884E3,4.007369E3,1.0497196E3,3.979089E3,2.8279543E1,1.0487015E3,1.0180775E0,3.8299883E3,1.4910083E2,2.7125568E1,1.153974E0,1.0438772E3,4.824361E0,3.8020547E3,2.7933708E1,1.17562805E2,3.1538029E1,1.0427017E3,1.1754626E0,3.773885E3,2.8169573E1,1.0903869E2,8.524111E0,1.0169644E3,2.5737272E1,2.601012E3,1.1728732E3,1.0644518E2,2.5935054E0,7.2503624E0,1.273749E0,9.8501385E2,3.1950583E1,2.4149004E1,1.588269E0],"tree_param":{"num_deleted":"0","num_feature":"1261","num_nodes":"35","size_leaf_vector":"1"}},{"base_weights":[-6.336806E-2,-4.110257E-3,-3.124541E-1,2.2314223E-3,-1.0794693E0,-2.6426923E-1,-4.4016966E-1,8.53445E-3,-3.0662826E-1,-3.3341545E-1,-6.911455E-2,-2.7102256E-1,3.048412E-1,-4.1711298E-1,-2.8872368E-1,1.976848E-2,-5.800803E-1,-2.8101325E-1,1.725774E-1,-5.132087E-1,-3.0053613E-1,4.821297E-2,-2.3816201E-1,-6.066654E-1,7.873797E-2,-2.8773028E-1,9.1378725E-1,-5.347878E-1,1.8362412E-1,-3.314613E-1,6.9897644E-2,2.4002068E-2,-6.2048867E-2,-7.931964E-2,8.900501E-1,-1.8797605E-1,1.0756077E-1,-9.17906E-2,6.020842E-2,4.0594792E-1,-3.263891E-2,-1.6513613E-1,1.13008134E-1,1.7345834E-1,-9.544388E-2,-1.171408E-1,8.412259E-3],"categories":[],"categories_nodes":[],"categories_segments":[],"categories_sizes":[],"default_left":[0,0,0,0,0,0,0,0,0,0,0,0,0,0,0,0,0,0,0,0,0,0,0,0,0,0,0,0,0,0,0,0,0,0,0,0,0,0,0,0,0,0,0,0,0,0,0],"id":6,"left_children":[1,3,5,7,9,11,13,15,-1,-1,-1,17,-1,19,-1,21,23,25,-1,27,29,31,33,35,-1,37,39,41,43,45,-1,-1,-1,-1,-1,-1,-1,-1,-1,-1,-1,-1,-1,-1,-1,-1,-1],"loss_changes":[7.298146E1,2.7248695E1,5.7313614E0,2.565901E1,3.7875938E-1,6.262886E0,2.7147903E0,2.6128067E1,0E0,0E0,0E0,5.9921036E0,0E0,2.642128E0,0E0,2.8452719E1,1.8167782E0,5.738056E0,0E0,2.1344528E0,1.9780207E0,2.833538E1,3.3176483E1,1.6098347E0,0E0,6.11145E0,1.9683793E0,2.0865555E0,1.1366318E0,2.3296747E0,0E0,0E0,0E0,0E0,0E0,0E0,0E0,0E0,0E0,0E0,0E0,0E0,0E0,0E0,0E0,0E0,0E0],"parents":[2147483647,0,0,1,1,2,2,3,3,4,4,5,5,6,6,7,7,11,11,13,13,15,15,16,16,17,17,19,19,20,20,21,21,22,22,23,23,25,25,26,26,27,27,28,28,29,29],"right_children":[2,4,6,8,10,12,14,16,-1,-1,-1,18,-1,20,-1,22,24,26,-1,28,30,32,34,36,-1,38,40,42,44,46,-1,-1,-1,-1,-1,-1,-1,-1,-1,-1,-1,-1,-1,-1,-1,-1,-1],"split_conditions":[1E0,1E0,1E0,1E0,1E0,1E0,1E0,1E0,-3.0662826E-1,-3.3341545E-1,-6.911455E-2,1E0,3.048412E-1,1E0,-2.8872368E-1,1E0,1E0,1E0,1.725774E-1,1E0,1E0,1E0,1E0,1E0,7.873797E-2,1E0,1E0,1E0,1E0,1E0,6.9897644E-2,2.4002068E-2,-6.2048867E-2,-7.931964E-2,8.900501E-1,-1.8797605E-1,1.0756077E-1,-9.17906E-2,6.020842E-2,4.0594792E-1,-3.263891E-2,-1.6513613E-1,1.13008134E-1,1.7345834E-1,-9.544388E-2,-1.171408E-1,8.412259E-3],"split_indices":[803,919,924,639,451,107,934,860,0,0,0,621,0,922,0,884,931,1006,0,928,929,842,594,952,0,770,920,398,920,931,0,0,0,0,0,0,0,0,0,0,0,0,0,0,0,0,0],"split_type":[0,0,0,0,0,0,0,0,0,0,0,0,0,0,0,0,0,0,0,0,0,0,0,0,0,0,0,0,0,0,0,0,0,0,0,0,0,0,0,0,0,0,0,0,0,0,0],"sum_hessian":[4.9435327E3,3.9943013E3,9.4923157E2,3.971876E3,2.242529E1,6.9143445E2,2.5779712E2,3.9485708E3,2.3305244E1,2.1315178E1,1.1101099E0,6.885909E2,2.8435502E0,2.4861942E2,9.177701E0,3.8755698E3,7.300094E1,6.8121674E2,7.37411E0,1.3441618E2,1.1420324E2,3.4913572E3,3.8421265E2,7.1039345E1,1.9615872E0,6.781634E2,3.0533729E0,1.3060426E2,3.8119175E0,1.08304276E2,5.898964E0,3.1049736E3,3.8638358E2,3.82003E2,2.2096543E0,6.99465E1,1.0928471E0,6.5411163E2,2.4051754E1,1.9096011E0,1.1437718E0,1.2878685E2,1.8174148E0,2.048644E0,1.7632734E0,9.2959885E1,1.5344391E1],"tree_param":{"num_deleted":"0","num_feature":"1261","num_nodes":"47","size_leaf_vector":"1"}},{"base_weights":[-4.7188006E-2,-4.176986E-3,-2.4212217E-1,5.6064045E-3,-6.1305374E-1,-2.2497596E-1,-6.7142355E-1,1.13880625E-2,-3.1295595E-1,-2.8486675E-1,-3.216632E-1,-2.1175025E-1,-7.589719E-1,-7.1724087E-1,6.589509E-2,1.7030315E-2,-3.0582595E-1,-3.4265357E-1,1.9116843E-1,-2.1663588E-1,3.3281618E-1,-7.9296553E-1,-3.599157E-2,-7.367011E-1,-3.352545E-2,1.2701775E-2,1.2617226E0,-4.4672307E-1,3.973684E-2,-2.0229395E-1,-6.837482E-1,-2.485522E-1,-5.8138393E-2,-7.562515E-1,-4.942369E-2,2.8585906E-3,5.162224E-1,4.4064754E-1,1.853956E-1,-1.5543708E-1,1.8194386E-1,-8.243968E-2,3.064969E-1,-6.28423E-2,2.2122349E-1,-2.2877192E-1,-5.95737E-2,-2.3317336E-1,-5.3914335E-2],"categories":[],"categories_nodes":[],"categories_segments":[],"categories_sizes":[],"default_left":[0,0,0,0,0,0,0,0,0,0,0,0,0,0,0,0,0,0,0,0,0,0,0,0,0,0,0,0,0,0,0,0,0,0,0,0,0,0,0,0,0,0,0,0,0,0,0,0,0],"id":7,"left_children":[1,3,5,7,9,11,13,15,-1,17,-1,19,21,23,-1,25,-1,27,-1,29,-1,31,-1,33,-1,35,37,39,41,43,45,-1,-1,47,-1,-1,-1,-1,-1,-1,-1,-1,-1,-1,-1,-1,-1,-1,-1],"loss_changes":[4.0683933E1,2.3690268E1,6.305355E0,2.3748425E1,9.171558E0,5.806652E0,1.5122805E0,2.2665287E1,0E0,2.2452028E0,0E0,5.5712166E0,3.4004784E-1,2.92305E-1,0E0,2.0854877E1,0E0,1.468092E0,0E0,5.379875E0,0E0,2.4073505E-1,0E0,2.178669E-1,0E0,2.0911753E1,8.807316E-1,2.4747062E0,2.9723995E0,5.5563507E0,7.7087784E-1,0E0,0E0,2.1536446E-1,0E0,0E0,0E0,0E0,0E0,0E0,0E0,0E0,0E0,0E0,0E0,0E0,0E0,0E0,0E0],"parents":[2147483647,0,0,1,1,2,2,3,3,4,4,5,5,6,6,7,7,9,9,11,11,12,12,13,13,15,15,17,17,19,19,21,21,23,23,25,25,26,26,27,27,28,28,29,29,30,30,33,33],"right_children":[2,4,6,8,10,12,14,16,-1,18,-1,20,22,24,-1,26,-1,28,-1,30,-1,32,-1,34,-1,36,38,40,42,44,46,-1,-1,48,-1,-1,-1,-1,-1,-1,-1,-1,-1,-1,-1,-1,-1,-1,-1],"split_conditions":[1E0,1E0,1E0,1E0,1E0,1E0,1E0,1E0,-3.1295595E-1,1E0,-3.216632E-1,1E0,1E0,1E0,6.589509E-2,1E0,-3.0582595E-1,1E0,1.9116843E-1,1E0,3.3281618E-1,1E0,-3.599157E-2,1E0,-3.352545E-2,1E0,1E0,1E0,1E0,1E0,1E0,-2.485522E-1,-5.8138393E-2,1E0,-4.942369E-2,2.8585906E-3,5.162224E-1,4.4064754E-1,1.853956E-1,-1.5543708E-1,1.8194386E-1,-8.243968E-2,3.064969E-1,-6.28423E-2,2.2122349E-1,-2.2877192E-1,-5.95737E-2,-2.3317336E-1,-5.3914335E-2],"split_indices":[803,911,633,368,835,148,939,438,0,929,0,993,935,940,0,50,0,267,0,293,0,939,0,930,0,362,924,946,931,1002,931,0,0,932,0,0,0,0,0,0,0,0,0,0,0,0,0,0,0],"split_type":[0,0,0,0,0,0,0,0,0,0,0,0,0,0,0,0,0,0,0,0,0,0,0,0,0,0,0,0,0,0,0,0,0,0,0,0,0,0,0,0,0,0,0,0,0,0,0,0,0],"sum_hessian":[4.851505E3,3.9753826E3,8.7612225E2,3.9134917E3,6.1890926E1,8.4393945E2,3.2182747E1,3.89302E3,2.0471827E1,3.7038036E1,2.4852892E1,8.249052E2,1.903424E1,3.079444E1,1.3883088E0,3.8728052E3,2.0214792E1,3.5445118E1,1.5929163E0,8.2269885E2,2.2063591E0,1.7844025E1,1.1902164E0,2.9625582E1,1.1688571E0,3.8603904E3,1.2414687E1,2.7730015E1,7.715104E0,7.995821E2,2.3116802E1,1.6483496E1,1.3605279E0,2.8334826E1,1.2907563E0,3.8542358E3,6.154692E0,8.423099E0,3.991588E0,2.6445244E1,1.2847717E0,6.3887525E0,1.326352E0,7.942899E2,5.2921567E0,1.9394098E1,3.722705E0,2.7003445E1,1.3313808E0],"tree_param":{"num_deleted":"0","num_feature":"1261","num_nodes":"49","size_leaf_vector":"1"}},{"base_weights":[-3.4808453E-2,-6.937696E-2,1.1944452E-1,-8.3499596E-2,3.742892E-1,2.1380031E-1,-8.584713E-2,-9.893128E-2,3.0961683E-1,5.696489E-1,2.5361848E-1,2.385992E-1,-6.722143E-1,-9.769383E-2,3.6826617E-1,-8.326131E-2,-5.377126E-1,2.8219563E-1,5.585867E-1,7.407436E-1,3.2023016E-1,2.9234785E-1,4.3703545E-2,2.2412074E-1,4.0355095E-1,-2.6853716E-1,7.871674E-2,-1.1016123E-1,3.3997357E-1,-1.1303765E-1,9.081071E-2,-6.0242367E-1,8.2554716E-1,4.278528E-1,5.4872695E-2,5.835013E-1,3.2258186E-1,2.0479651E-1,1.6886641E-1,2.2894374E-1,4.308298E-1,3.2375153E-2,-1.7349109E-2,2.1502657E-1,4.270288E-1,-1.22186296E-1,2.3365079E-1,-4.876956E-2,1.8859558E-2,6.894404E-2,-3.3668507E-2,-1.9562113E-1,5.573282E-1,1.0564471E-1,3.6253935E-1,-4.004131E-3,2.640195E-1,1.1207726E-1,2.6777178E-1,2.8288772E-4,1.3273187E-1,2.988276E-2,1.0825519E-1,1.6679333E-1,4.6172973E-2,6.052641E-2,2.948095E-1,-4.0701635E-2,1.8743339E-1],"categories":[],"categories_nodes":[],"categories_segments":[],"categories_sizes":[],"default_left":[0,0,0,0,0,0,0,0,0,0,0,0,0,0,0,0,0,0,0,0,0,0,0,0,0,0,0,0,0,0,0,0,0,0,0,0,0,0,0,0,0,0,0,0,0,0,0,0,0,0,0,0,0,0,0,0,0,0,0,0,0,0,0,0,0,0,0,0,0],"id":8,"left_children":[1,3,5,7,9,11,13,15,17,19,21,23,25,27,-1,29,31,33,-1,35,37,39,41,43,-1,-1,-1,45,-1,47,49,51,-1,53,55,57,-1,59,-1,61,63,-1,-1,65,-1,67,-1,-1,-1,-1,-1,-1,-1,-1,-1,-1,-1,-1,-1,-1,-1,-1,-1,-1,-1,-1,-1,-1,-1],"loss_changes":[2.5560158E1,2.4563263E1,1.701877E1,2.30546E1,2.7072258E0,1.33782215E1,4.4310637E0,2.507005E1,5.5871105E0,1.6996317E0,6.098113E-1,9.085964E0,3.7017365E0,4.3532057E0,0E0,1.829634E1,2.842944E1,4.687726E0,0E0,7.485752E-1,4.5132756E-1,4.6748686E-1,9.167772E-2,6.015047E0,0E0,0E0,0E0,3.020798E0,0E0,2.6260014E1,1.4585558E1,1.637629E1,0E0,4.6904306E0,3.2043355E0,9.628577E-1,0E0,7.397777E-1,0E0,7.549794E-1,5.768895E-1,0E0,0E0,5.6741505E0,0E0,2.813507E0,0E0,0E0,0E0,0E0,0E0,0E0,0E0,0E0,0E0,0E0,0E0,0E0,0E0,0E0,0E0,0E0,0E0,0E0,0E0,0E0,0E0,0E0,0E0],"parents":[2147483647,0,0,1,1,2,2,3,3,4,4,5,5,6,6,7,7,8,8,9,9,10,10,11,11,12,12,13,13,15,15,16,16,17,17,19,19,20,20,21,21,22,22,23,23,27,27,29,29,30,30,31,31,33,33,34,34,35,35,37,37,39,39,40,40,43,43,45,45],"right_children":[2,4,6,8,10,12,14,16,18,20,22,24,26,28,-1,30,32,34,-1,36,38,40,42,44,-1,-1,-1,46,-1,48,50,52,-1,54,56,58,-1,60,-1,62,64,-1,-1,66,-1,68,-1,-1,-1,-1,-1,-1,-1,-1,-1,-1,-1,-1,-1,-1,-1,-1,-1,-1,-1,-1,-1,-1,-1],"split_conditions":[1E0,1E0,1E0,1E0,1E0,1E0,1E0,1E0,1E0,1E0,1E0,1E0,1E0,1E0,3.6826617E-1,1E0,1E0,1E0,5.585867E-1,1E0,1E0,1E0,1E0,1E0,4.0355095E-1,-2.6853716E-1,7.871674E-2,1E0,3.3997357E-1,1E0,1E0,1E0,8.2554716E-1,1E0,1E0,1E0,3.2258186E-1,1E0,1.6886641E-1,1E0,1E0,3.2375153E-2,-1.7349109E-2,1E0,4.270288E-1,1E0,2.3365079E-1,-4.876956E-2,1.8859558E-2,6.894404E-2,-3.3668507E-2,-1.9562113E-1,5.573282E-1,1.0564471E-1,3.6253935E-1,-4.004131E-3,2.640195E-1,1.1207726E-1,2.6777178E-1,2.8288772E-4,1.3273187E-1,2.988276E-2,1.0825519E-1,1.6679333E-1,4.6172973E-2,6.052641E-2,2.948095E-1,-4.0701635E-2,1.8743339E-1],"split_indices":[932,717,924,910,850,890,207,890,32,924,929,298,717,519,0,930,478,924,0,931,929,924,924,811,0,0,0,542,0,931,924,788,0,113,879,930,0,930,0,931,931,0,0,626,0,287,0,0,0,0,0,0,0,0,0,0,0,0,0,0,0,0,0,0,0,0,0,0,0],"split_type":[0,0,0,0,0,0,0,0,0,0,0,0,0,0,0,0,0,0,0,0,0,0,0,0,0,0,0,0,0,0,0,0,0,0,0,0,0,0,0,0,0,0,0,0,0,0,0,0,0,0,0,0,0,0,0,0,0,0,0,0,0,0,0,0,0,0,0,0,0],"sum_hessian":[4.7909097E3,3.9142632E3,8.766466E2,3.7942961E3,1.1996701E2,6.0057153E2,2.7607507E2,3.651698E3,1.4259814E2,4.4386642E1,7.558037E1,5.849305E2,1.5641061E1,2.745245E2,1.5505558E0,3.5269324E3,1.24765755E2,1.4128421E2,1.3139209E0,2.5158615E1,1.9228027E1,6.3476276E1,1.2104091E1,5.7856305E2,6.3674283E0,1.2663072E1,2.9779897E0,2.7267328E2,1.8512272E0,3.012049E3,5.1488324E2,1.2315985E2,1.6059078E0,8.5571884E1,5.571233E1,1.8981014E1,6.177601E0,1.4279273E1,4.948755E0,4.536095E1,1.8115326E1,7.3762326E0,4.727858E0,5.7537933E2,3.1837142E0,2.6988522E2,2.788059E0,2.3503545E3,6.616945E2,3.0556097E2,2.0932224E2,1.21444046E2,1.7158008E0,7.932961E1,6.2422743E0,5.236691E1,3.3454204E0,1.2619226E1,6.361787E0,8.226463E0,6.0528092E0,2.3790016E1,2.1570934E1,1.1782678E1,6.3326483E0,5.668423E2,8.537036E0,2.6590292E2,3.9822872E0],"tree_param":{"num_deleted":"0","num_feature":"1261","num_nodes":"69","size_leaf_vector":"1"}},{"base_weights":[-2.4901694E-2,-1.966439E-2,-9.1071546E-1,-1.5121526E-2,-1.0175012E0,-2.8119814E-1,-3.8900208E-1,-1.1275374E-2,-3.28956E-1,-3.1561977E-1,-5.3370398E-2,-1.43004665E-2,-1.617696E-1,-1.29837915E-2,6.8951905E-1,-8.951501E-3,-2.7285013E-1,-3.466731E-3,3.924792E-1],"categories":[],"categories_nodes":[],"categories_segments":[],"categories_sizes":[],"default_left":[0,0,0,0,0,0,0,0,0,0,0,0,0,0,0,0,0,0,0],"id":9,"left_children":[1,3,5,7,9,-1,11,13,-1,-1,-1,-1,-1,15,-1,17,-1,-1,-1],"loss_changes":[2.1966858E1,2.1344301E1,2.17762E-2,1.950131E1,4.3213463E-1,0E0,1.312162E-1,1.8480978E1,0E0,0E0,0E0,0E0,0E0,1.688694E1,0E0,1.5978982E1,0E0,0E0,0E0],"parents":[2147483647,0,0,1,1,2,2,3,3,4,4,6,6,7,7,13,13,15,15],"right_children":[2,4,6,8,10,-1,12,14,-1,-1,-1,-1,-1,16,-1,18,-1,-1,-1],"split_conditions":[1E0,1E0,1E0,1E0,1E0,-2.8119814E-1,1E0,1E0,-3.28956E-1,-3.1561977E-1,-5.3370398E-2,-1.43004665E-2,-1.617696E-1,1E0,6.8951905E-1,1E0,-2.7285013E-1,-3.466731E-3,3.924792E-1],"split_indices":[438,919,930,280,451,0,924,619,0,0,0,0,0,430,0,597,0,0,0],"split_type":[0,0,0,0,0,0,0,0,0,0,0,0,0,0,0,0,0,0,0],"sum_hessian":[4.7378354E3,4.711004E3,2.683124E1,4.690664E3,2.034009E1,2.4771082E1,2.0601583E0,4.675047E3,1.5617062E1,1.929279E1,1.0473E0,1.0322067E0,1.0279516E0,4.672585E3,2.461837E0,4.6526685E3,1.9916468E1,4.644477E3,8.191374E0],"tree_param":{"num_deleted":"0","num_feature":"1261","num_nodes":"19","size_leaf_vector":"1"}},{"base_weights":[-1.8299494E-2,-3.0895567E-2,2.717071E-1,-3.7296683E-2,5.2766377E-1,2.3494782E-1,1.2231003E0,-5.6712866E-2,1.571369E-1,7.5521445E-1,3.2645056E-1,2.0115466E-1,4.096534E-1,4.90516E-1,-1.0967505E-1,-7.006395E-2,2.606506E-1,3.2187054E-1,-7.864905E-2,5.800811E-1,1.162585E0,1.1784866E-1,7.834859E-1,1.8349993E-1,4.753344E-1,-5.7172544E-2,-4.4693044E-1,4.4253874E-1,1.6968502E-1,3.45095E-1,-6.122031E-1,-1.1128433E-1,5.6568456E-1,6.531253E-1,1.6345242E-1,4.1989172E-1,1.2753522E-1,-1.3539027E-2,2.609067E-1,2.9200643E-1,-1.825151E-2,2.039549E-1,-2.7183294E-1,-1.9068634E-2,1.9373572E-1,-1.5386249E-1,6.1952287E-1,1.23492226E-1,2.9105318E-1,4.172074E-2,9.663059E-2,9.939524E-2,4.1496807E-1,-3.1606558E-1,2.3037662E-1,-4.3801546E-2,1.6404404E-1,1.9615243E-1,3.1449277E-2,1.6206567E-1,3.241206E-1,1.0027714E-1,-2.317343E-2,-2.843692E-2,5.481561E-2,8.645725E-2,1.5132067E-2,6.706257E-2,-2.2786115E-1],"categories":[],"categories_nodes":[],"categories_segments":[],"categories_sizes":[],"default_left":[0,0,0,0,0,0,0,0,0,0,0,0,0,0,0,0,0,0,0,0,0,0,0,0,0,0,0,0,0,0,0,0,0,0,0,0,0,0,0,0,0,0,0,0,0,0,0,0,0,0,0,0,0,0,0,0,0,0,0,0,0,0,0,0,0,0,0,0,0],"id":10,"left_children":[1,3,5,7,9,11,13,15,17,19,21,23,-1,-1,-1,25,27,29,31,33,35,37,39,41,-1,43,45,47,49,51,53,55,57,59,61,-1,-1,63,65,-1,-1,67,-1,-1,-1,-1,-1,-1,-1,-1,-1,-1,-1,-1,-1,-1,-1,-1,-1,-1,-1,-1,-1,-1,-1,-1,-1,-1,-1],"loss_changes":[1.7227797E1,1.6175213E1,6.5784206E0,1.6877302E1,2.100542E0,6.9940395E0,5.221738E0,1.7235086E1,1.5793351E1,9.875736E-1,2.6693058E0,4.2493706E0,0E0,0E0,0E0,1.8922241E1,2.6425018E0,5.399925E0,3.5908756E0,4.4976473E-1,4.5530033E-1,3.9948946E-1,1.4861007E0,4.3012376E0,0E0,1.6984283E1,2.240341E1,4.8322105E-1,4.7369957E-1,2.888857E0,4.563117E0,3.7476773E0,2.667296E-1,1.5085697E-1,1.9280417E-1,0E0,0E0,2.0758115E-1,4.365945E-2,0E0,0E0,3.606484E0,0E0,0E0,0E0,0E0,0E0,0E0,0E0,0E0,0E0,0E0,0E0,0E0,0E0,0E0,0E0,0E0,0E0,0E0,0E0,0E0,0E0,0E0,0E0,0E0,0E0,0E0,0E0],"parents":[2147483647,0,0,1,1,2,2,3,3,4,4,5,5,6,6,7,7,8,8,9,9,10,10,11,11,15,15,16,16,17,17,18,18,19,19,20,20,21,21,22,22,23,23,25,25,26,26,27,27,28,28,29,29,30,30,31,31,32,32,33,33,34,34,37,37,38,38,41,41],"right_children":[2,4,6,8,10,12,14,16,18,20,22,24,-1,-1,-1,26,28,30,32,34,36,38,40,42,-1,44,46,48,50,52,54,56,58,60,62,-1,-1,64,66,-1,-1,68,-1,-1,-1,-1,-1,-1,-1,-1,-1,-1,-1,-1,-1,-1,-1,-1,-1,-1,-1,-1,-1,-1,-1,-1,-1,-1,-1],"split_conditions":[1E0,1E0,1E0,1E0,1E0,1E0,1E0,1E0,1E0,1E0,1E0,1E0,4.096534E-1,4.90516E-1,-1.0967505E-1,1E0,1E0,1E0,1E0,1E0,1E0,1E0,1E0,1E0,4.753344E-1,1E0,1E0,1E0,1E0,1E0,1E0,1E0,1E0,1E0,1E0,4.1989172E-1,1.2753522E-1,1E0,1E0,2.9200643E-1,-1.825151E-2,1E0,-2.7183294E-1,-1.9068634E-2,1.9373572E-1,-1.5386249E-1,6.1952287E-1,1.23492226E-1,2.9105318E-1,4.172074E-2,9.663059E-2,9.939524E-2,4.1496807E-1,-3.1606558E-1,2.3037662E-1,-4.3801546E-2,1.6404404E-1,1.9615243E-1,3.1449277E-2,1.6206567E-1,3.241206E-1,1.0027714E-1,-2.317343E-2,-2.843692E-2,5.481561E-2,8.645725E-2,1.5132067E-2,6.706257E-2,-2.2786115E-1],"split_indices":[905,429,946,916,850,106,576,717,842,931,932,900,0,0,0,890,850,371,928,932,924,931,924,303,0,42,523,803,930,544,930,542,549,928,924,0,0,930,924,0,0,13,0,0,0,0,0,0,0,0,0,0,0,0,0,0,0,0,0,0,0,0,0,0,0,0,0,0,0],"split_type":[0,0,0,0,0,0,0,0,0,0,0,0,0,0,0,0,0,0,0,0,0,0,0,0,0,0,0,0,0,0,0,0,0,0,0,0,0,0,0,0,0,0,0,0,0,0,0,0,0,0,0,0,0,0,0,0,0,0,0,0,0,0,0,0,0,0,0,0,0],"sum_hessian":[4.712842E3,4.517522E3,1.9531946E2,4.4672603E3,5.0261772E1,1.8925415E2,6.065319E0,4.062306E3,4.0495453E2,2.229509E1,2.7966682E1,1.8490515E2,4.348991E0,4.7932262E0,1.2720929E0,3.8990566E3,1.6324919E2,2.3818187E2,1.6677266E2,1.728712E1,5.0079703E0,2.0065952E1,7.900729E0,1.8369336E2,1.2117923E0,3.7712073E3,1.278493E2,5.3136486E1,1.1011271E2,2.3301872E2,5.1631413E0,1.595203E2,7.25236E0,1.4225443E1,3.0616777E0,3.1102898E0,1.8976804E0,1.0931542E1,9.134411E0,6.32546E0,1.5752691E0,1.8110632E2,2.5870447E0,3.738139E3,3.3068367E1,1.2535436E2,2.4949384E0,5.1878677E1,1.2578079E0,9.32867E1,1.6826015E1,2.312686E2,1.7501266E0,4.091387E0,1.0717542E0,1.5226503E2,7.255266E0,5.736299E0,1.5160612E0,1.3043162E1,1.1822805E0,1.5634854E0,1.4981922E0,8.096574E0,2.8349679E0,7.759235E0,1.3751762E0,1.7825061E2,2.8556998E0],"tree_param":{"num_deleted":"0","num_feature":"1261","num_nodes":"69","size_leaf_vector":"1"}},{"base_weights":[-1.2924587E-2,-8.98417E-3,-8.5694844E-1,-5.5789067E-3,-9.6370155E-1,-2.665109E-1,-1.02673456E-1,-1.9086299E-3,-8.8779753E-1,-3.0223233E-1,-4.3337308E-2,1.4829802E-3,-2.830762E-1,-3.095177E-1,-1.7120934E-1,5.0746324E-3,-8.731735E-1,2.4063936E-3,-3.1012318E-1,-3.3079606E-1,-1.5195805E-1],"categories":[],"categories_nodes":[],"categories_segments":[],"categories_sizes":[],"default_left":[0,0,0,0,0,0,0,0,0,0,0,0,0,0,0,0,0,0,0,0,0],"id":11,"left_children":[1,3,5,7,9,-1,-1,11,13,-1,-1,15,-1,-1,-1,17,19,-1,-1,-1,-1],"loss_changes":[1.5556246E1,1.514138E1,4.748535E-2,1.5033774E1,4.476099E-1,0E0,0E0,1.47734785E1,2.89114E-1,0E0,0E0,1.4485396E1,0E0,0E0,0E0,1.4063994E1,1.02808E0,0E0,0E0,0E0,0E0],"parents":[2147483647,0,0,1,1,2,2,3,3,4,4,7,7,8,8,11,11,15,15,16,16],"right_children":[2,4,6,8,10,-1,-1,12,14,-1,-1,16,-1,-1,-1,18,20,-1,-1,-1,-1],"split_conditions":[1E0,1E0,1E0,1E0,1E0,-2.665109E-1,-1.02673456E-1,1E0,1E0,-3.0223233E-1,-4.3337308E-2,1E0,-2.830762E-1,-3.095177E-1,-1.7120934E-1,1E0,1E0,2.4063936E-3,-3.1012318E-1,-3.3079606E-1,-1.5195805E-1],"split_indices":[438,919,930,424,451,0,0,368,803,0,0,265,0,0,0,280,803,0,0,0,0],"split_type":[0,0,0,0,0,0,0,0,0,0,0,0,0,0,0,0,0,0,0,0,0],"sum_hessian":[4.6787505E3,4.6580146E3,2.0735807E1,4.642462E3,1.5552782E1,1.8858562E1,1.877245E0,4.624226E3,1.8235912E1,1.4546425E1,1.006357E0,4.608626E3,1.5600297E1,1.0992779E1,7.243133E0,4.5907686E3,1.785714E1,4.578773E3,1.1995725E1,9.748354E0,8.108786E0],"tree_param":{"num_deleted":"0","num_feature":"1261","num_nodes":"21","size_leaf_vector":"1"}},{"base_weights":[-1.0192921E-2,-1.3982769E-2,7.6831454E-1,-1.7036159E-2,9.0178055E-1,-1.27933E-1,8.6516005E-1,-2.2514347E-2,4.9516994E-1,1.0049567E0,2.6449302E-1,2.704759E-1,1.15549E-1,-4.8426926E-2,8.8413715E-2,8.0500656E-1,9.540567E-2,3.3546752E-1,1.21969335E-1,-5.2819576E-2,1.5722051E-1,-8.611443E-2,5.490433E-2,8.328313E-2,6.2267745E-1,6.2776315E-1,4.8470065E-1,-4.4815507E-2,1.7730676E-1,-2.72011E-2,7.0333165E-1,1.9068345E-2,-2.6158154E-1,2.3498187E-2,6.1293536E-1,1.9475237E-1,7.0838675E-2,-3.866703E-2,1.8271908E-1],"categories":[],"categories_nodes":[],"categories_segments":[],"categories_sizes":[],"default_left":[0,0,0,0,0,0,0,0,0,0,0,0,0,0,0,0,0,0,0,0,0,0,0,0,0,0,0,0,0,0,0,0,0,0,0,0,0,0,0],"id":12,"left_children":[1,3,5,7,9,-1,11,13,15,17,19,-1,-1,21,23,25,27,-1,-1,-1,-1,29,31,33,-1,35,-1,37,-1,-1,-1,-1,-1,-1,-1,-1,-1,-1,-1],"loss_changes":[1.3776784E1,1.30012865E1,2.9863806E0,1.3001937E1,7.5020313E-1,0E0,2.4381638E-2,1.3173996E1,5.9968204E0,4.225397E-1,4.9369758E-1,0E0,0E0,1.4470954E1,8.676275E0,2.9356995E0,1.5932803E0,0E0,0E0,0E0,0E0,3.035802E1,8.025783E0,8.258507E0,0E0,4.9585342E-2,0E0,1.0956839E0,0E0,0E0,0E0,0E0,0E0,0E0,0E0,0E0,0E0,0E0,0E0],"parents":[2147483647,0,0,1,1,2,2,3,3,4,4,6,6,7,7,8,8,9,9,10,10,13,13,14,14,15,15,16,16,21,21,22,22,23,23,25,25,27,27],"right_children":[2,4,6,8,10,-1,12,14,16,18,20,-1,-1,22,24,26,28,-1,-1,-1,-1,30,32,34,-1,36,-1,38,-1,-1,-1,-1,-1,-1,-1,-1,-1,-1,-1],"split_conditions":[1E0,1E0,1E0,1E0,1E0,-1.27933E-1,1E0,1E0,1E0,1E0,1E0,2.704759E-1,1.15549E-1,1E0,1E0,1E0,1E0,3.3546752E-1,1.21969335E-1,-5.2819576E-2,1.5722051E-1,1E0,1E0,1E0,6.2267745E-1,1E0,4.8470065E-1,1E0,1.7730676E-1,-2.72011E-2,7.0333165E-1,1.9068345E-2,-2.6158154E-1,2.3498187E-2,6.1293536E-1,1.9475237E-1,7.0838675E-2,-3.866703E-2,1.8271908E-1],"split_indices":[422,107,884,902,931,0,931,932,922,932,924,0,0,850,112,912,688,0,0,0,0,416,523,475,0,930,0,931,0,0,0,0,0,0,0,0,0,0,0],"split_type":[0,0,0,0,0,0,0,0,0,0,0,0,0,0,0,0,0,0,0,0,0,0,0,0,0,0,0,0,0,0,0,0,0,0,0,0,0,0,0],"sum_hessian":[4.6647837E3,4.643162E3,2.1621307E1,4.6287104E3,1.445191E1,1.3659986E0,2.025531E1,4.580675E3,4.803556E1,1.1941643E1,2.5102675E0,1.8010221E1,2.245087E0,3.7137205E3,8.669544E2,2.6490467E1,2.1545095E1,9.310554E0,2.6310892E0,1.0499618E0,1.4603056E0,2.7213442E3,9.9237604E2,8.657611E2,1.1933533E0,2.319376E1,3.2967064E0,1.7502748E1,4.042346E0,2.7172139E3,4.1305213E0,9.8411566E2,8.26033E0,8.646147E2,1.1463902E0,2.1367931E1,1.8258287E0,1.6220083E1,1.2826653E0],"tree_param":{"num_deleted":"0","num_feature":"1261","num_nodes":"39","size_leaf_vector":"1"}},{"base_weights":[-7.0723705E-3,-1.0536256E-2,7.702292E-1,-7.267327E-3,-7.7927184E-1,9.292691E-1,-7.173347E-2,-1.9952044E-2,1.8708663E-1,-8.176407E-1,-1.6681861E-2,3.502038E-1,1.5913184E-1,-2.2616731E-2,1.0538968E0,2.2385843E-1,-8.2824403E-1,-2.5653374E-1,-5.859103E-2,-3.2041874E-2,2.634298E-1,1.2902588E0,6.507594E-2,1.8047278E-1,7.7022666E-1,-2.8959435E-1,-6.134282E-2,-7.4001206E-3,-2.788527E-1,8.931664E-2,-1.668221E-1,4.5891795E-1,-5.542821E-2,5.0276384E-2,4.943417E-1,1.6620992E-1,5.4545224E-1],"categories":[],"categories_nodes":[],"categories_segments":[],"categories_sizes":[],"default_left":[0,0,0,0,0,0,0,0,0,0,0,0,0,0,0,0,0,0,0,0,0,0,0,0,0,0,0,0,0,0,0,0,0,0,0,0,0],"id":13,"left_children":[1,3,5,7,9,11,-1,13,15,17,-1,-1,-1,19,21,23,25,-1,-1,27,29,31,-1,33,35,-1,-1,-1,-1,-1,-1,-1,-1,-1,-1,-1,-1],"loss_changes":[1.2505738E1,1.1609316E1,3.5300465E0,1.1352861E1,4.9769688E-1,1.0905104E0,0E0,1.2392149E1,1.0719288E1,2.645073E-1,0E0,0E0,0E0,1.1635448E1,1.8408747E0,6.3339252E0,6.6392946E-1,0E0,0E0,2.7616312E1,4.0346127E0,3.1639605E0,0E0,4.5314417E0,3.474553E0,0E0,0E0,0E0,0E0,0E0,0E0,0E0,0E0,0E0,0E0,0E0,0E0],"parents":[2147483647,0,0,1,1,2,2,3,3,4,4,5,5,7,7,8,8,9,9,13,13,14,14,15,15,16,16,19,19,20,20,21,21,23,23,24,24],"right_children":[2,4,6,8,10,12,-1,14,16,18,-1,-1,-1,20,22,24,26,-1,-1,28,30,32,-1,34,36,-1,-1,-1,-1,-1,-1,-1,-1,-1,-1,-1,-1],"split_conditions":[1E0,1E0,1E0,1E0,1E0,1E0,-7.173347E-2,1E0,1E0,1E0,-1.6681861E-2,3.502038E-1,1.5913184E-1,1E0,1E0,1E0,1E0,-2.5653374E-1,-5.859103E-2,1E0,1E0,1E0,6.507594E-2,1E0,1E0,-2.8959435E-1,-6.134282E-2,-7.4001206E-3,-2.788527E-1,8.931664E-2,-1.668221E-1,4.5891795E-1,-5.542821E-2,5.0276384E-2,4.943417E-1,1.6620992E-1,5.4545224E-1],"split_indices":[621,148,924,929,935,803,0,362,436,939,0,0,0,879,924,836,879,0,0,436,928,932,0,714,915,0,0,0,0,0,0,0,0,0,0,0,0],"split_type":[0,0,0,0,0,0,0,0,0,0,0,0,0,0,0,0,0,0,0,0,0,0,0,0,0,0,0,0,0,0,0,0,0,0,0,0,0],"sum_hessian":[4.6406704E3,4.621064E3,1.9606382E1,4.602502E3,1.8561974E1,1.7006096E1,2.6002865E0,4.3213613E3,2.8114087E2,1.7504045E1,1.0579276E0,9.442545E0,7.563551E0,4.311641E3,9.720125E0,2.7206708E2,9.073815E0,1.615717E1,1.3468761E0,4.1749653E3,1.3667581E2,7.1573277E0,2.562797E0,2.5328471E2,1.8782352E1,6.9901953E0,2.0836203E0,4.141957E3,3.3008457E1,1.3179742E2,4.878389E0,6.125733E0,1.0315946E0,2.5218446E2,1.1002516E0,1.6837439E1,1.9449131E0],"tree_param":{"num_deleted":"0","num_feature":"1261","num_nodes":"37","size_leaf_vector":"1"}},{"base_weights":[-5.4119173E-3,-2.496683E-3,-8.2909435E-1,-5.7378104E-3,7.285702E-1,-1.6389404E-1,-2.908708E-1,-3.161799E-3,-2.743469E-1,5.029877E-1,4.5780334E-1,2.3999396E-3,-4.2667037E-1,1.7583495E-1,1.2797615E-2,5.4250164E-3,-7.9690105E-1,-4.661685E-1,8.849747E-2,2.4001156E-3,-2.6748893E-1,-2.7868003E-1,-1.5782239E-1,-1.5256624E-1,8.367847E-2],"categories":[],"categories_nodes":[],"categories_segments":[],"categories_sizes":[],"default_left":[0,0,0,0,0,0,0,0,0,0,0,0,0,0,0,0,0,0,0,0,0,0,0,0,0],"id":14,"left_children":[1,3,5,7,9,-1,-1,11,-1,-1,13,15,17,-1,-1,19,21,23,-1,-1,-1,-1,-1,-1,-1],"loss_changes":[1.1119373E1,1.0942261E1,1.1906052E-1,1.0758132E1,4.464842E0,0E0,0E0,1.0800409E1,0E0,0E0,8.9284515E-1,1.0948979E1,1.8316946E0,0E0,0E0,1.0427163E1,1.2181091E-1,1.9337549E0,0E0,0E0,0E0,0E0,0E0,0E0,0E0],"parents":[2147483647,0,0,1,1,2,2,3,3,4,4,7,7,10,10,11,11,12,12,15,15,16,16,17,17],"right_children":[2,4,6,8,10,-1,-1,12,-1,-1,14,16,18,-1,-1,20,22,24,-1,-1,-1,-1,-1,-1,-1],"split_conditions":[1E0,1E0,1E0,1E0,1E0,-1.6389404E-1,-2.908708E-1,1E0,-2.743469E-1,5.029877E-1,1E0,1E0,1E0,1.7583495E-1,1.2797615E-2,1E0,1E0,1E0,8.849747E-2,2.4001156E-3,-2.6748893E-1,-2.7868003E-1,-1.5782239E-1,-1.5256624E-1,8.367847E-2],"split_indices":[430,478,884,919,850,0,0,860,0,0,932,438,936,0,0,368,803,934,0,0,0,0,0,0,0],"split_type":[0,0,0,0,0,0,0,0,0,0,0,0,0,0,0,0,0,0,0,0,0,0,0,0,0],"sum_hessian":[4.630567E3,4.6152354E3,1.5331531E1,4.595852E3,1.9383194E1,6.7110333E0,8.620498E0,4.583862E3,1.1990257E1,3.1526077E0,1.6230587E1,4.525426E3,5.8435947E1,1.2083862E1,4.146724E0,4.5093525E3,1.607312E1,5.5739254E1,2.6966937E0,4.497432E3,1.1920667E1,9.171749E0,6.9013705E0,5.303951E1,2.699745E0],"tree_param":{"num_deleted":"0","num_feature":"1261","num_nodes":"25","size_leaf_vector":"1"}},{"base_weights":[-4.4450494E-3,-1.7202966E-3,-8.1291825E-1,3.373033E-3,-4.3372187E-1,-2.9299062E-1,-1.4361404E-1,6.564158E-3,-2.0665282E-1,-9.207069E-2,-3.0783027E-1,-6.8139E-3,1.8820067E-1,-8.282203E-3,-5.758115E-1,-1.1806026E-2,4.8660237E-1,2.0793486E-1,-7.343885E-1,5.376905E-2,-2.2214554E-1,-2.4569146E-1,-4.121763E-2,-4.258801E-3,2.9933074E-1,1.1230106E-1,4.0441835E-1,6.903451E-2,-1.7762096E-1,-2.4476375E-1,-5.91819E-2,2.7089869E-3,1.7250223E-1],"categories":[],"categories_nodes":[],"categories_segments":[],"categories_sizes":[],"default_left":[0,0,0,0,0,0,0,0,0,0,0,0,0,0,0,0,0,0,0,0,0,0,0,0,0,0,0,0,0,0,0,0,0],"id":15,"left_children":[1,3,5,7,9,-1,-1,11,-1,13,-1,15,17,19,21,23,25,27,29,31,-1,-1,-1,-1,-1,-1,-1,-1,-1,-1,-1,-1,-1],"loss_changes":[1.0180516E1,1.0139574E1,3.8181782E-1,1.0065948E1,1.0773309E1,0E0,0E0,1.1020931E1,0E0,1.4201243E0,0E0,1.0412272E1,5.8173647E0,1.4473308E0,4.3922722E-1,1.0108289E1,3.5901556E0,5.555279E0,1.3390183E-1,6.825373E-1,0E0,0E0,0E0,0E0,0E0,0E0,0E0,0E0,0E0,0E0,0E0,0E0,0E0],"parents":[2147483647,0,0,1,1,2,2,3,3,4,4,7,7,9,9,11,11,12,12,13,13,14,14,15,15,16,16,17,17,18,18,19,19],"right_children":[2,4,6,8,10,-1,-1,12,-1,14,-1,16,18,20,22,24,26,28,30,32,-1,-1,-1,-1,-1,-1,-1,-1,-1,-1,-1,-1,-1],"split_conditions":[1E0,1E0,1E0,1E0,1E0,-2.9299062E-1,-1.4361404E-1,1E0,-2.0665282E-1,1E0,-3.0783027E-1,1E0,1E0,1E0,1E0,1E0,1E0,1E0,1E0,1E0,-2.2214554E-1,-2.4569146E-1,-4.121763E-2,-4.258801E-3,2.9933074E-1,1.1230106E-1,4.0441835E-1,6.903451E-2,-1.7762096E-1,-2.4476375E-1,-5.91819E-2,2.7089869E-3,1.7250223E-1],"split_indices":[424,911,803,566,835,0,0,836,0,253,0,849,565,278,836,597,946,420,924,939,0,0,0,0,0,0,0,0,0,0,0,0,0],"split_type":[0,0,0,0,0,0,0,0,0,0,0,0,0,0,0,0,0,0,0,0,0,0,0,0,0,0,0,0,0,0,0,0,0],"sum_hessian":[4.621072E3,4.606549E3,1.4523072E1,4.5538506E3,5.2698032E1,8.45765E0,6.065422E0,4.53394E3,1.9911015E1,3.4154846E1,1.8543186E1,4.2238066E3,3.1013318E2,2.9979273E1,4.175573E0,4.182467E3,4.1339924E1,3.0439676E2,5.7364297E0,2.8491314E1,1.4879588E0,2.1275585E0,2.0480144E0,4.1735723E3,8.894202E0,3.784278E1,3.4971433E0,2.9687814E2,7.518604E0,4.5301228E0,1.206307E0,2.7176056E1,1.3152592E0],"tree_param":{"num_deleted":"0","num_feature":"1261","num_nodes":"33","size_leaf_vector":"1"}},{"base_weights":[-3.795021E-3,-6.480335E-3,7.911764E-1,-1.6599508E-2,2.1022649E-1,8.492506E-1,8.992533E-2,-1.7812321E-2,5.540773E-1,1.9237848E-1,5.7609236E-1,9.293076E-1,1.13252036E-1,-2.0570925E-2,7.902729E-1,2.0905595E-1,-6.927752E-1,3.1173646E-1,1.03056274E-1,-2.182053E-2,5.3044456E-1,9.033581E-1,4.8238035E-2,2.2944668E-1,-4.374223E-1,-2.5439122E-1,-3.521854E-2,2.42618E-3,-2.8712971E-2,2.8590694E-1,9.3339644E-2,7.4036546E-2,-1.369635E-1,5.3241346E-3,-2.5492978E-1],"categories":[],"categories_nodes":[],"categories_segments":[],"categories_sizes":[],"default_left":[0,0,0,0,0,0,0,0,0,0,0,0,0,0,0,0,0,0,0,0,0,0,0,0,0,0,0,0,0,0,0,0,0,0,0],"id":16,"left_children":[1,3,5,7,9,11,-1,13,-1,15,-1,17,-1,19,21,23,25,-1,-1,27,-1,29,-1,31,33,-1,-1,-1,-1,-1,-1,-1,-1,-1,-1],"loss_changes":[9.854893E0,1.0089657E1,1.8896961E-1,9.966537E0,5.8955917E0,1.5348339E-1,0E0,9.809841E0,0E0,3.160088E0,0E0,3.3339024E-1,0E0,9.827331E0,9.2053604E-1,2.7532406E0,2.5845134E-1,0E0,0E0,9.674035E0,0E0,7.042503E-2,0E0,2.4413748E0,1.2345846E0,0E0,0E0,0E0,0E0,0E0,0E0,0E0,0E0,0E0,0E0],"parents":[2147483647,0,0,1,1,2,2,3,3,4,4,5,5,7,7,9,9,11,11,13,13,14,14,15,15,16,16,19,19,21,21,23,23,24,24],"right_children":[2,4,6,8,10,12,-1,14,-1,16,-1,18,-1,20,22,24,26,-1,-1,28,-1,30,-1,32,34,-1,-1,-1,-1,-1,-1,-1,-1,-1,-1],"split_conditions":[1E0,1E0,1E0,1E0,1E0,1E0,8.992533E-2,1E0,5.540773E-1,1E0,5.7609236E-1,1E0,1.13252036E-1,1E0,1E0,1E0,1E0,3.1173646E-1,1.03056274E-1,1E0,5.3044456E-1,1E0,4.8238035E-2,1E0,1E0,-2.5439122E-1,-3.521854E-2,2.42618E-3,-2.8712971E-2,2.8590694E-1,9.3339644E-2,7.4036546E-2,-1.369635E-1,5.3241346E-3,-2.5492978E-1],"split_indices":[50,910,931,498,890,850,0,714,0,603,0,929,0,417,930,758,931,0,0,924,0,931,0,295,924,0,0,0,0,0,0,0,0,0,0],"split_type":[0,0,0,0,0,0,0,0,0,0,0,0,0,0,0,0,0,0,0,0,0,0,0,0,0,0,0,0,0,0,0,0,0,0,0],"sum_hessian":[4.6130186E3,4.5984775E3,1.454123E1,4.3942124E3,2.0426532E2,1.2353248E1,2.187983E0,4.392344E3,1.8681693E0,2.0325644E2,1.0088782E0,9.731782E0,2.6214662E0,4.378372E3,1.3972138E1,2.0024733E2,3.0091064E0,7.5437155E0,2.188066E0,4.3763022E3,2.0695E0,1.14754925E1,2.496646E0,1.9474977E2,5.4975677E0,1.9967672E0,1.0123392E0,3.115962E3,1.2603405E3,1.0025515E1,1.4499776E0,1.9057236E2,4.177408E0,3.0679462E0,2.4296215E0],"tree_param":{"num_deleted":"0","num_feature":"1261","num_nodes":"35","size_leaf_vector":"1"}},{"base_weights":[-2.5441307E-3,1.762377E-4,-7.776191E-1,2.3221823E-3,-2.9361588E-1,-2.5447327E-1,-1.3200702E-1,4.56696E-3,-2.7212152E-1,7.185761E-3,-7.7145916E-1,9.860733E-3,-7.207263E-1,-3.0464906E-1,-4.070264E-1,3.6332803E-3,-2.5648397E-1,-2.9196042E-1,-1.3675417E-1,-1.6861247E-1,3.5590854E-2],"categories":[],"categories_nodes":[],"categories_segments":[],"categories_sizes":[],"default_left":[0,0,0,0,0,0,0,0,0,0,0,0,0,0,0,0,0,0,0,0,0],"id":17,"left_children":[1,3,5,7,-1,-1,-1,9,-1,11,13,15,17,-1,19,-1,-1,-1,-1,-1,-1],"loss_changes":[9.709397E0,9.64373E0,1.0759354E-2,9.355112E0,0E0,0E0,0E0,9.293794E0,0E0,8.878353E0,9.545622E-1,8.845798E0,6.728487E-1,0E0,7.0533586E-1,0E0,0E0,0E0,0E0,0E0,0E0],"parents":[2147483647,0,0,1,1,2,2,3,3,7,7,9,9,10,10,11,11,12,12,14,14],"right_children":[2,4,6,8,-1,-1,-1,10,-1,12,14,16,18,-1,20,-1,-1,-1,-1,-1,-1],"split_conditions":[1E0,1E0,1E0,1E0,-2.9361588E-1,-2.5447327E-1,-1.3200702E-1,1E0,-2.7212152E-1,1E0,1E0,1E0,1E0,-3.0464906E-1,1E0,3.6332803E-3,-2.5648397E-1,-2.9196042E-1,-1.3675417E-1,-1.6861247E-1,3.5590854E-2],"split_indices":[154,280,924,782,0,0,0,265,0,733,803,311,803,0,924,0,0,0,0,0,0],"split_type":[0,0,0,0,0,0,0,0,0,0,0,0,0,0,0,0,0,0,0,0,0],"sum_hessian":[4.603842E3,4.588736E3,1.5105834E1,4.579694E3,9.04202E0,1.1241505E1,3.8643286E0,4.5694097E3,1.0284303E1,4.555029E3,1.4380794E1,4.5393335E3,1.5694944E1,7.5431256E0,6.8376675E0,4.5285366E3,1.079711E1,6.6664987E0,9.028445E0,5.2270365E0,1.6106313E0],"tree_param":{"num_deleted":"0","num_feature":"1261","num_nodes":"21","size_leaf_vector":"1"}},{"base_weights":[-2.623755E-3,-5.555987E-4,-2.9451746E-1,-3.930133E-3,5.7591015E-1,7.755256E-3,-1.6655535E-1,2.8064016E-1,9.1251373E-1,1.1244008E-2,-5.416776E-1,-2.071966E-1,1.8694388E0,-7.654958E-2,1.5033469E-1,2.91287E-1,6.756207E-2,3.1385597E-2,-8.510197E-2,-2.765823E-1,-1.0160008E-1,-1.2390332E-1,-3.019936E-1,6.279154E-1,1.7278455E-1,5.0203122E-2,-6.829851E-2,1.1277176E-2,-1.24141045E-1,-2.0462045E-2,-1.633346E-1,-9.624014E-2,3.235023E-1,-4.6426106E-2,4.35738E-1,7.210667E-2,-2.5819113E-2],"categories":[],"categories_nodes":[],"categories_segments":[],"categories_sizes":[],"default_left":[0,0,0,0,0,0,0,0,0,0,0,0,0,0,0,0,0,0,0,0,0,0,0,0,0,0,0,0,0,0,0,0,0,0,0,0,0],"id":18,"left_children":[1,3,-1,5,7,9,11,13,15,17,19,21,23,25,-1,-1,-1,27,29,-1,31,33,-1,-1,-1,35,-1,-1,-1,-1,-1,-1,-1,-1,-1,-1,-1],"loss_changes":[9.315629E0,8.935161E0,0E0,8.67881E0,2.400711E0,8.173999E0,2.572058E1,1.2735085E0,2.6524925E-1,8.221404E0,4.409048E0,1.9922966E1,5.564289E-1,1.4270198E-1,0E0,0E0,0E0,9.694044E0,5.6481752E0,0E0,3.8625233E0,1.3540039E1,0E0,0E0,0E0,1.384932E-1,0E0,0E0,0E0,0E0,0E0,0E0,0E0,0E0,0E0,0E0,0E0],"parents":[2147483647,0,0,1,1,3,3,4,4,5,5,6,6,7,7,8,8,9,9,10,10,11,11,12,12,13,13,17,17,18,18,20,20,21,21,25,25],"right_children":[2,4,-1,6,8,10,12,14,16,18,20,22,24,26,-1,-1,-1,28,30,-1,32,34,-1,-1,-1,36,-1,-1,-1,-1,-1,-1,-1,-1,-1,-1,-1],"split_conditions":[1E0,1E0,-2.9451746E-1,1E0,1E0,1E0,1E0,1E0,1E0,1E0,1E0,1E0,1E0,1E0,1.5033469E-1,2.91287E-1,6.756207E-2,1E0,1E0,-2.765823E-1,1E0,1E0,-3.019936E-1,6.279154E-1,1.7278455E-1,1E0,-6.829851E-2,1.1277176E-2,-1.24141045E-1,-2.0462045E-2,-1.633346E-1,-9.624014E-2,3.235023E-1,-4.6426106E-2,4.35738E-1,7.210667E-2,-2.5819113E-2],"split_indices":[886,425,0,884,924,639,419,931,929,803,803,436,930,932,0,0,0,911,633,0,931,416,0,0,0,930,0,0,0,0,0,0,0,0,0,0,0],"split_type":[0,0,0,0,0,0,0,0,0,0,0,0,0,0,0,0,0,0,0,0,0,0,0,0,0,0,0,0,0,0,0,0,0,0,0,0,0],"sum_hessian":[4.5997295E3,4.5910327E3,8.697076E0,4.5653013E3,2.5731329E1,4.260142E3,3.0515903E2,1.468411E1,1.1047219E1,4.2342354E3,2.5906734E1,3.000675E2,5.0915294E0,5.8535843E0,8.830525E0,9.801115E0,1.246104E0,3.5026616E3,7.315739E2,1.33104515E1,1.2596283E1,2.727999E2,2.72676E1,3.814035E0,1.2774942E0,3.546532E0,2.3070524E0,3.455416E3,4.724559E1,7.067284E2,2.4845575E1,1.12369E1,1.3593832E0,2.6844803E2,4.3518586E0,1.1616532E0,2.3848786E0],"tree_param":{"num_deleted":"0","num_feature":"1261","num_nodes":"37","size_leaf_vector":"1"}},{"base_weights":[-2.4895908E-3,-3.9723376E-3,1.3372117E0,-8.587396E-3,3.9091694E-1,5.7952356E-1,-7.674031E-2,-1.2383403E-2,4.6616733E-1,5.938018E-1,2.085561E-1,-1.4769511E-4,-2.0109503E-1,1.9846313E-1,8.7543553E-1,6.5177375E-1,1.4598584E-1,5.7953127E-2,5.404045E-1,1.9332868E-3,-2.57382E-1,-2.739402E-1,6.2152284E-1,3.2903826E-1,-2.980661E-1,3.9724702E-1,2.1230093E-1,5.2415884E-1,2.5871566E-1,7.798723E-2,-1.0707645E-2,-3.9587412E-2,1.6570416E-1,2.0122992E-1,-1.5501552E-2,1.3257033E-3,-2.0127515E-1,-1.0836808E-1,1.32324E-1,2.029435E-1,1.12757646E-1,1.5754704E-1,2.0359838E-2,-1.3298355E-1,-3.5244778E-2,1.2914531E-1,2.6673505E-1,-2.9751671E-2,4.5674752E-2,5.400462E-2,1.2725904E-2],"categories":[],"categories_nodes":[],"categories_segments":[],"categories_sizes":[],"default_left":[0,0,0,0,0,0,0,0,0,0,0,0,0,0,0,0,0,0,0,0,0,0,0,0,0,0,0,0,0,0,0,0,0,0,0,0,0,0,0,0,0,0,0,0,0,0,0,0,0,0,0],"id":19,"left_children":[1,3,5,7,9,-1,-1,11,13,15,17,19,21,23,25,27,29,31,33,35,-1,37,39,41,43,-1,-1,45,-1,-1,-1,47,49,-1,-1,-1,-1,-1,-1,-1,-1,-1,-1,-1,-1,-1,-1,-1,-1,-1,-1],"loss_changes":[9.112935E0,8.351634E0,5.2976446E0,8.167618E0,1.8348112E0,0E0,0E0,1.0376573E1,3.7650857E0,5.41358E-1,1.4390687E0,7.5369015E0,1.656755E1,1.5910306E0,1.1107254E-1,1.2366104E-1,9.4149075E-2,2.3102438E-1,7.3425794E-1,7.0477686E0,0E0,1.589146E1,5.0393105E-2,9.225869E-1,8.741301E-2,0E0,0E0,1.6039371E-1,0E0,0E0,0E0,1.5245754E-1,1.060766E-2,0E0,0E0,0E0,0E0,0E0,0E0,0E0,0E0,0E0,0E0,0E0,0E0,0E0,0E0,0E0,0E0,0E0,0E0],"parents":[2147483647,0,0,1,1,2,2,3,3,4,4,7,7,8,8,9,9,10,10,11,11,12,12,13,13,14,14,15,15,16,16,17,17,18,18,19,19,21,21,22,22,23,23,24,24,27,27,31,31,32,32],"right_children":[2,4,6,8,10,-1,-1,12,14,16,18,20,22,24,26,28,30,32,34,36,-1,38,40,42,44,-1,-1,46,-1,-1,-1,48,50,-1,-1,-1,-1,-1,-1,-1,-1,-1,-1,-1,-1,-1,-1,-1,-1,-1,-1],"split_conditions":[1E0,1E0,1E0,1E0,1E0,5.7952356E-1,-7.674031E-2,1E0,1E0,1E0,1E0,1E0,1E0,1E0,1E0,1E0,1E0,1E0,1E0,1E0,-2.57382E-1,1E0,1E0,1E0,1E0,3.9724702E-1,2.1230093E-1,1E0,2.5871566E-1,7.798723E-2,-1.0707645E-2,1E0,1E0,2.0122992E-1,-1.5501552E-2,1.3257033E-3,-2.0127515E-1,-1.0836808E-1,1.32324E-1,2.029435E-1,1.12757646E-1,1.5754704E-1,2.0359838E-2,-1.3298355E-1,-3.5244778E-2,1.2914531E-1,2.6673505E-1,-2.9751671E-2,4.5674752E-2,5.400462E-2,1.2725904E-2],"split_indices":[594,429,924,42,850,0,0,884,930,932,932,919,422,929,884,931,924,931,924,148,0,425,929,850,924,0,0,928,0,0,0,929,924,0,0,0,0,0,0,0,0,0,0,0,0,0,0,0,0,0,0],"split_type":[0,0,0,0,0,0,0,0,0,0,0,0,0,0,0,0,0,0,0,0,0,0,0,0,0,0,0,0,0,0,0,0,0,0,0,0,0,0,0,0,0,0,0,0,0,0,0,0,0,0,0],"sum_hessian":[4.583903E3,4.579831E3,4.0718036E0,4.527892E3,5.1939075E1,2.810319E0,1.2614846E0,4.4929414E3,3.4950405E1,2.3518015E1,2.8421062E1,4.2203057E3,2.7263596E2,2.202722E1,1.2923183E1,2.0419197E1,3.098817E0,2.0357048E1,8.064014E0,4.2110874E3,9.218244E0,2.5106996E2,2.1565975E1,1.7707817E1,4.319402E0,1.6410366E0,1.1282147E1,1.4887334E1,5.5318637E0,1.6394659E0,1.4593512E0,1.1016802E1,9.340245E0,6.4999638E0,1.5640504E0,4.196577E3,1.4510065E1,2.2419586E2,2.6874107E1,1.6190466E1,5.3755097E0,9.536175E0,8.171643E0,1.5878587E0,2.7315438E0,1.3581013E1,1.306321E0,8.774471E0,2.24233E0,7.9564714E0,1.383774E0],"tree_param":{"num_deleted":"0","num_feature":"1261","num_nodes":"51","size_leaf_vector":"1"}},{"base_weights":[-1.8096915E-3,-4.1788653E-3,6.684712E-1,-2.5376934E-3,-2.8007248E-1,9.1824576E-2,2.2525032E-1,-5.3888507E-4,-7.526873E-1,1.4920235E-3,-7.345482E-1,-2.8857034E-1,-1.0091354E-1,2.6515865E-4,1.2153082E0,-4.601514E-1,-2.6929742E-1,6.940563E-4,-2.1428402E-1,4.463053E-1,4.617941E-2,-3.5279326E-2,-1.510171E-1],"categories":[],"categories_nodes":[],"categories_segments":[],"categories_sizes":[],"default_left":[0,0,0,0,0,0,0,0,0,0,0,0,0,0,0,0,0,0,0,0,0,0,0],"id":20,"left_children":[1,3,5,7,-1,-1,-1,9,11,13,15,-1,-1,17,19,21,-1,-1,-1,-1,-1,-1,-1],"loss_changes":[7.2617507E0,6.9468775E0,2.5091505E-1,6.820333E0,0E0,0E0,0E0,6.765732E0,7.292714E-1,6.740268E0,1.4743471E-1,0E0,0E0,6.6214094E0,1.0922065E0,4.0345073E-2,0E0,0E0,0E0,0E0,0E0,0E0,0E0],"parents":[2147483647,0,0,1,1,2,2,3,3,7,7,8,8,9,9,10,10,13,13,14,14,15,15],"right_children":[2,4,6,8,-1,-1,-1,10,12,14,16,-1,-1,18,20,22,-1,-1,-1,-1,-1,-1,-1],"split_conditions":[1E0,1E0,1E0,1E0,-2.8007248E-1,9.1824576E-2,2.2525032E-1,1E0,1E0,1E0,1E0,-2.8857034E-1,-1.0091354E-1,1E0,1E0,1E0,-2.6929742E-1,6.940563E-4,-2.1428402E-1,4.463053E-1,4.617941E-2,-3.5279326E-2,-1.510171E-1],"split_indices":[50,280,884,428,0,0,0,430,803,619,884,0,0,438,932,803,0,0,0,0,0,0,0],"split_type":[0,0,0,0,0,0,0,0,0,0,0,0,0,0,0,0,0,0,0,0,0,0,0],"sum_hessian":[4.570097E3,4.554991E3,1.5106297E1,4.547963E3,7.028279E0,3.6709116E0,1.1435386E1,4.5368745E3,1.1087994E1,4.5253516E3,1.1523093E1,6.507259E0,4.5807347E0,4.5217812E3,3.5701725E0,5.7205787E0,5.8025146E0,4.50985E3,1.1931469E1,2.5214498E0,1.0487227E0,1.0580509E0,4.662528E0],"tree_param":{"num_deleted":"0","num_feature":"1261","num_nodes":"23","size_leaf_vector":"1"}},{"base_weights":[-1.6325943E-3,-1.6430516E-2,1.00345984E-1,-1.38144465E-2,-2.4903326E-1,1.1635689E-1,-5.372424E-1,-3.5321523E-2,7.6442026E-2,1.2592772E-1,-2.3323949E-1,1.6114797E-2,-2.7903244E-1,-7.299541E-2,6.460382E-2,6.480854E-2,3.5504466E-1,1.3368374E-1,-2.946916E-1,-3.2102475E-3,1.117659E-2,-1.01873346E-1,1.3429652E-1,5.4893237E-2,7.5853705E-1,9.433927E-2,-2.3997353E-1,1.4071791E-1,-3.0668566E-1,-3.7715033E-2,3.950419E-2,4.608182E-2,-2.0056893E-1,1.5216109E-2,4.658408E-1,-5.3648703E-2,2.9607037E-1,4.8795152E-2,-1.0227346E-2,-9.0102576E-2,3.0822328E-1,4.026927E-2,4.2337057E-1],"categories":[],"categories_nodes":[],"categories_segments":[],"categories_sizes":[],"default_left":[0,0,0,0,0,0,0,0,0,0,0,0,0,0,0,0,0,0,0,0,0,0,0,0,0,0,0,0,0,0,0,0,0,0,0,0,0,0,0,0,0,0,0],"id":21,"left_children":[1,3,5,7,-1,9,11,13,15,17,-1,19,-1,21,23,25,-1,27,-1,-1,-1,29,31,33,35,37,39,41,-1,-1,-1,-1,-1,-1,-1,-1,-1,-1,-1,-1,-1,-1,-1],"loss_changes":[6.8935246E0,8.479907E0,5.971794E0,7.723308E0,0E0,4.9356136E0,3.1363993E0,1.2098953E1,9.784404E0,4.9480324E0,0E0,4.335424E-3,0E0,1.3982444E1,5.88914E0,6.852026E0,0E0,4.675934E0,0E0,0E0,0E0,1.1425457E1,4.5328474E0,5.3534074E0,2.7598147E0,6.080807E0,5.458274E0,4.3837366E0,0E0,0E0,0E0,0E0,0E0,0E0,0E0,0E0,0E0,0E0,0E0,0E0,0E0,0E0,0E0],"parents":[2147483647,0,0,1,1,2,2,3,3,5,5,6,6,7,7,8,8,9,9,11,11,13,13,14,14,15,15,17,17,21,21,22,22,23,23,24,24,25,25,26,26,27,27],"right_children":[2,4,6,8,-1,10,12,14,16,18,-1,20,-1,22,24,26,-1,28,-1,-1,-1,30,32,34,36,38,40,42,-1,-1,-1,-1,-1,-1,-1,-1,-1,-1,-1,-1,-1,-1,-1],"split_conditions":[1E0,1E0,1E0,1E0,-2.4903326E-1,1E0,1E0,1E0,1E0,1E0,-2.3323949E-1,1E0,-2.7903244E-1,1E0,1E0,1E0,3.5504466E-1,1E0,-2.946916E-1,-3.2102475E-3,1.117659E-2,1E0,1E0,1E0,1E0,1E0,1E0,1E0,-3.0668566E-1,-3.7715033E-2,3.950419E-2,4.608182E-2,-2.0056893E-1,1.5216109E-2,4.658408E-1,-5.3648703E-2,2.9607037E-1,4.8795152E-2,-1.0227346E-2,-9.0102576E-2,3.0822328E-1,4.026927E-2,4.2337057E-1],"split_indices":[930,154,436,931,0,747,884,932,715,110,0,924,0,929,626,842,0,725,0,0,0,905,436,475,850,924,287,813,0,0,0,0,0,0,0,0,0,0,0,0,0,0,0],"split_type":[0,0,0,0,0,0,0,0,0,0,0,0,0,0,0,0,0,0,0,0,0,0,0,0,0,0,0,0,0,0,0,0,0,0,0,0,0,0,0,0,0,0,0],"sum_hessian":[4.5659653E3,3.9880986E3,5.778667E2,3.9763313E3,1.1767356E1,5.645085E2,1.3358239E1,3.2116426E3,7.646888E2,5.593779E2,5.1305723E0,5.9444194E0,7.4138203E0,2.3325088E3,8.791337E2,7.5778406E2,6.904737E0,5.563635E2,3.014363E0,2.838171E0,3.1062481E0,2.0477451E3,2.847638E2,8.6806555E2,1.1068206E1,6.9147644E2,6.630758E1,5.5387146E2,2.4920845E0,1.8584758E3,1.8926927E2,2.7886548E2,5.8983035E0,8.66685E2,1.3805474E0,2.210731E0,8.857475E0,4.51213E2,2.4026344E2,6.4021126E1,2.2864487E0,5.521579E2,1.7135558E0],"tree_param":{"num_deleted":"0","num_feature":"1261","num_nodes":"43","size_leaf_vector":"1"}},{"base_weights":[-1.7593353E-3,-5.8372477E-3,3.4850648E-1,-4.1262065E-3,-8.2046646E-1,5.2342224E-1,9.347998E-2,-2.3695212E-3,-7.883699E-1,-7.624388E-2,-2.693628E-1,4.1555178E-1,9.667721E-1,2.9305937E-2,1.9957559E-1,-7.391625E-4,-9.5500505E-1,-2.8937942E-1,-1.0410561E-2,3.3032858E-1,3.8057187E-1,1.1987623E-1,4.01279E-1,-5.4277286E-2,8.8547386E-2,-1.6313111E-3,4.6115974E-1,-3.171774E-1,-6.806124E-2,2.603323E-1,2.2696805E-1,-1.2897353E-1,1.330971E-1,3.384276E-4,-1.4915344E-1,1.7047292E-2,1.3132995E-1,-1.21776305E-1,1.6130306E-2],"categories":[],"categories_nodes":[],"categories_segments":[],"categories_sizes":[],"default_left":[0,0,0,0,0,0,0,0,0,0,0,0,0,0,0,0,0,0,0,0,0,0,0,0,0,0,0,0,0,0,0,0,0,0,0,0,0,0,0],"id":22,"left_children":[1,3,5,7,9,11,13,15,17,-1,-1,19,21,23,-1,25,27,-1,-1,29,-1,-1,-1,31,-1,33,-1,-1,-1,35,-1,37,-1,-1,-1,-1,-1,-1,-1],"loss_changes":[6.500298E0,6.266363E0,2.287355E0,6.1834297E0,1.8489647E-1,1.0735741E0,8.070055E-1,6.9583626E0,1.2988563E0,0E0,0E0,1.5122018E0,5.766697E-1,4.892759E-1,0E0,6.141143E0,3.3003807E-1,0E0,0E0,5.639658E-1,0E0,0E0,0E0,6.91308E-1,0E0,6.1161833E0,0E0,0E0,0E0,8.212261E-1,0E0,8.1129384E-1,0E0,0E0,0E0,0E0,0E0,0E0,0E0],"parents":[2147483647,0,0,1,1,2,2,3,3,4,4,5,5,6,6,7,7,8,8,11,11,12,12,13,13,15,15,16,16,19,19,23,23,25,25,29,29,31,31],"right_children":[2,4,6,8,10,12,14,16,18,-1,-1,20,22,24,-1,26,28,-1,-1,30,-1,-1,-1,32,-1,34,-1,-1,-1,36,-1,38,-1,-1,-1,-1,-1,-1,-1],"split_conditions":[1E0,1E0,1E0,1E0,1E0,1E0,1E0,1E0,1E0,-7.624388E-2,-2.693628E-1,1E0,1E0,1E0,1.9957559E-1,1E0,1E0,-2.8937942E-1,-1.0410561E-2,1E0,3.8057187E-1,1.1987623E-1,4.01279E-1,1E0,8.8547386E-2,1E0,4.6115974E-1,-3.171774E-1,-6.806124E-2,1E0,2.2696805E-1,1E0,1.330971E-1,3.384276E-4,-1.4915344E-1,1.7047292E-2,1.3132995E-1,-1.21776305E-1,1.6130306E-2],"split_indices":[902,368,922,311,884,912,936,814,930,0,0,202,924,688,0,337,922,0,0,323,0,0,0,931,0,633,0,0,0,770,0,633,0,0,0,0,0,0,0],"split_type":[0,0,0,0,0,0,0,0,0,0,0,0,0,0,0,0,0,0,0,0,0,0,0,0,0,0,0,0,0,0,0,0,0,0,0,0,0,0,0],"sum_hessian":[4.548479E3,4.4971055E3,5.137348E1,4.4886826E3,8.422933E0,2.9848665E1,2.1524818E1,4.4796514E3,9.03128E0,1.5279253E0,6.895007E0,2.5565643E1,4.283022E0,2.0297895E1,1.226923E0,4.472997E3,6.6543965E0,7.0928965E0,1.9383835E0,2.4504686E1,1.0609566E0,2.5145402E0,1.7684815E0,1.6048212E1,4.2496824E0,4.4714023E3,1.5948943E0,5.438632E0,1.2157643E0,2.2431702E1,2.0729864E0,1.4599144E1,1.4490678E0,4.447634E3,2.3768484E1,1.1063122E1,1.1368579E1,5.3181324E0,9.281012E0],"tree_param":{"num_deleted":"0","num_feature":"1261","num_nodes":"39","size_leaf_vector":"1"}},{"base_weights":[-1.3050619E-3,3.6355807E-4,-2.5208893E-1,2.6971467E-3,-5.763915E-1,4.593168E-3,-7.140656E-1,-1.7803526E-1,-5.319506E-2,6.3215108E-3,-7.8513926E-1,-2.721133E-1,-3.8173744E-1,8.267241E-3,-6.788358E-1,-2.8969845E-1,-4.4168126E-2,-5.8933575E-2,-1.7882678E-1,2.948641E-3,-2.5096366E-1,-2.845541E-1,-9.290929E-2],"categories":[],"categories_nodes":[],"categories_segments":[],"categories_sizes":[],"default_left":[0,0,0,0,0,0,0,0,0,0,0,0,0,0,0,0,0,0,0,0,0,0,0],"id":23,"left_children":[1,3,-1,5,7,9,11,-1,-1,13,15,-1,17,19,21,-1,-1,-1,-1,-1,-1,-1,-1],"loss_changes":[6.363853E0,6.1086245E0,0E0,6.1462417E0,1.9286633E-2,6.159813E0,4.1897202E-1,0E0,0E0,6.005274E0,9.92713E-1,0E0,1.2557918E-1,5.929803E0,9.761162E-1,0E0,0E0,0E0,0E0,0E0,0E0,0E0,0E0],"parents":[2147483647,0,0,1,1,3,3,4,4,5,5,6,6,9,9,10,10,12,12,13,13,14,14],"right_children":[2,4,-1,6,8,10,12,-1,-1,14,16,-1,18,20,22,-1,-1,-1,-1,-1,-1,-1,-1],"split_conditions":[1E0,1E0,-2.5208893E-1,1E0,1E0,1E0,1E0,-1.7803526E-1,-5.319506E-2,1E0,1E0,-2.721133E-1,1E0,1E0,1E0,-2.8969845E-1,-4.4168126E-2,-5.8933575E-2,-1.7882678E-1,2.948641E-3,-2.5096366E-1,-2.845541E-1,-9.290929E-2],"split_indices":[782,566,0,424,933,693,803,0,0,265,803,0,924,152,803,0,0,0,0,0,0,0,0],"split_type":[0,0,0,0,0,0,0,0,0,0,0,0,0,0,0,0,0,0,0,0,0,0,0],"sum_hessian":[4.5445283E3,4.536506E3,8.022819E0,4.519216E3,1.7289719E1,4.508284E3,1.0931975E1,1.6113829E1,1.1758895E0,4.4994287E3,8.855081E0,5.8219056E0,5.11007E0,4.487673E3,1.1756293E1,6.501456E0,2.353625E0,3.7687283E0,1.3413417E0,4.4803794E3,7.293222E0,5.8863916E0,5.8699017E0],"tree_param":{"num_deleted":"0","num_feature":"1261","num_nodes":"23","size_leaf_vector":"1"}},{"base_weights":[-1.6058143E-3,-4.17959E-3,5.0351757E-1,-5.437029E-3,2.9703376E-1,5.8887464E-1,-5.1523138E-2,-3.0428036E-3,-5.236291E-1,6.202116E-1,2.626059E-2,-1.076248E-3,-6.3341165E-1,-6.262139E-1,1.6829807E-1,2.2626977E-1,1.115353E-1,2.7572094E-3,-3.2607412E-1,-2.7556485E-1,-3.5389778E-1,-4.732439E-1,-2.9789168E-1,4.0353956E-3,-3.546369E-2,-1.0908516E-1,7.321196E-2,-1.5194657E-1,9.095218E-2,-8.701548E-2,-2.3724277E-1],"categories":[],"categories_nodes":[],"categories_segments":[],"categories_sizes":[],"default_left":[0,0,0,0,0,0,0,0,0,0,0,0,0,0,0,0,0,0,0,0,0,0,0,0,0,0,0,0,0,0,0],"id":24,"left_children":[1,3,5,7,-1,9,-1,11,13,15,-1,17,19,21,-1,-1,-1,23,25,-1,27,29,-1,-1,-1,-1,-1,-1,-1,-1,-1],"loss_changes":[5.9084005E0,5.6578245E0,1.4290786E0,5.601627E0,0E0,2.705946E-1,0E0,5.57346E0,2.6617346E0,3.6212635E-1,0E0,5.586791E0,7.8932714E-1,6.209078E-1,0E0,0E0,0E0,5.7354393E0,1.2076592E0,0E0,1.0245999E0,6.799748E-1,0E0,0E0,0E0,0E0,0E0,0E0,0E0,0E0,0E0],"parents":[2147483647,0,0,1,1,2,2,3,3,5,5,7,7,8,8,9,9,11,11,12,12,13,13,17,17,18,18,20,20,21,21],"right_children":[2,4,6,8,-1,10,-1,12,14,16,-1,18,20,22,-1,-1,-1,24,26,-1,28,30,-1,-1,-1,-1,-1,-1,-1,-1,-1],"split_conditions":[1E0,1E0,1E0,1E0,2.9703376E-1,1E0,-5.1523138E-2,1E0,1E0,1E0,2.626059E-2,1E0,1E0,1E0,1.6829807E-1,2.2626977E-1,1.115353E-1,1E0,1E0,-2.7556485E-1,1E0,1E0,-2.9789168E-1,4.0353956E-3,-3.546369E-2,-1.0908516E-1,7.321196E-2,-1.5194657E-1,9.095218E-2,-8.701548E-2,-2.3724277E-1],"split_indices":[621,520,924,906,0,931,0,733,836,803,0,860,803,68,0,0,0,842,936,0,924,924,0,0,0,0,0,0,0,0,0],"split_type":[0,0,0,0,0,0,0,0,0,0,0,0,0,0,0,0,0,0,0,0,0,0,0,0,0,0,0,0,0,0,0],"sum_hessian":[4.5420454E3,4.520006E3,2.2039242E1,4.51529E3,4.715766E0,1.967956E1,2.359682E0,4.4955254E3,1.9765E1,1.8298666E1,1.3808943E0,4.482543E3,1.2982437E1,1.844326E1,1.3217394E0,1.0563736E1,7.7349296E0,4.431266E3,5.1276733E1,5.294833E0,7.6876044E0,1.4631146E1,3.812113E0,4.072162E3,3.591039E2,4.844851E1,2.828223E0,6.424764E0,1.2628402E0,1.0492025E1,4.1391206E0],"tree_param":{"num_deleted":"0","num_feature":"1261","num_nodes":"31","size_leaf_vector":"1"}},{"base_weights":[-1.4192183E-3,1.0081164E-3,-5.060076E-1,2.7401005E-3,-7.5372094E-1,-5.987619E-1,2.279207E-2,4.2397454E-3,-2.4056888E-1,-2.4435616E-1,-7.622944E-2,-7.5376374E-1,-1.1832997E-1,5.6496873E-3,-2.5293714E-1,-8.671895E-1,8.4033094E-2,1.4715993E-1,-1.2905873E-1,7.049552E-3,-2.5457266E-1,-2.8737718E-1,-9.44584E-2,8.86288E-3,6.561953E-2,2.4956944E-3,-2.7929178E-1],"categories":[],"categories_nodes":[],"categories_segments":[],"categories_sizes":[],"default_left":[0,0,0,0,0,0,0,0,0,0,0,0,0,0,0,0,0,0,0,0,0,0,0,0,0,0,0],"id":25,"left_children":[1,3,5,7,9,11,-1,13,-1,-1,-1,15,17,19,-1,21,-1,23,-1,25,-1,-1,-1,-1,-1,-1,-1],"loss_changes":[5.55781E0,5.90603E0,1.218193E0,5.442127E0,1.0727167E-1,1.3145604E0,0E0,5.380867E0,0E0,0E0,0E0,1.8924065E0,5.4224217E-1,5.3791327E0,0E0,3.4585285E-1,0E0,2.6112936E-2,0E0,5.350643E0,0E0,0E0,0E0,0E0,0E0,0E0,0E0],"parents":[2147483647,0,0,1,1,2,2,3,3,4,4,5,5,7,7,11,11,12,12,13,13,15,15,17,17,19,19],"right_children":[2,4,6,8,10,12,-1,14,-1,-1,-1,16,18,20,-1,22,-1,24,-1,26,-1,-1,-1,-1,-1,-1,-1],"split_conditions":[1E0,1E0,1E0,1E0,1E0,1E0,2.279207E-2,1E0,-2.4056888E-1,-2.4435616E-1,-7.622944E-2,1E0,1E0,1E0,-2.5293714E-1,1E0,8.4033094E-2,1E0,-1.2905873E-1,1E0,-2.5457266E-1,-2.8737718E-1,-9.44584E-2,8.86288E-3,6.561953E-2,2.4956944E-3,-2.7929178E-1],"split_indices":[899,430,930,919,932,924,0,272,0,0,0,915,922,886,0,932,0,932,0,418,0,0,0,0,0,0,0],"split_type":[0,0,0,0,0,0,0,0,0,0,0,0,0,0,0,0,0,0,0,0,0,0,0,0,0,0,0],"sum_hessian":[4.5362944E3,4.5155703E3,2.0724258E1,4.5062256E3,9.3447075E0,1.7850471E1,2.873786E0,4.4988354E3,7.3899956E0,7.769018E0,1.5756888E0,1.3066044E1,4.7844286E0,4.492354E3,6.481569E0,1.1919576E1,1.1464673E0,2.8696442E0,1.9147843E0,4.485994E3,6.359691E0,9.607031E0,2.3125453E0,1.6200768E0,1.2495674E0,4.4809214E3,5.072917E0],"tree_param":{"num_deleted":"0","num_feature":"1261","num_nodes":"27","size_leaf_vector":"1"}},{"base_weights":[-1.6055128E-3,-6.384451E-5,-7.593435E-1,-2.2815005E-3,5.17096E-1,-2.8010467E-1,-7.2611277E-3,2.272433E-3,-2.7548778E-1,6.145963E-1,-1.6925219E-1,3.6557473E-3,-2.5419572E-1,-3.177273E-1,1.6985139E-1,7.277556E-1,-1.0753721E-1,2.5389642E-3,1.0400815E0,-3.7328485E-1,2.1679422E-1,8.118575E-1,1.0964722E-1,1.5418003E-4,1.7152105E-1,1.212478E-1,5.027607E-1,-1.2215606E-1,1.5510821E-1,1.9105808E-1,-1.5562212E-1,2.7375522E-1,6.632129E-2],"categories":[],"categories_nodes":[],"categories_segments":[],"categories_sizes":[],"default_left":[0,0,0,0,0,0,0,0,0,0,0,0,0,0,0,0,0,0,0,0,0,0,0,0,0,0,0,0,0,0,0,0,0],"id":26,"left_children":[1,3,5,7,9,-1,-1,11,13,15,-1,17,-1,19,-1,21,-1,23,25,27,29,31,-1,-1,-1,-1,-1,-1,-1,-1,-1,-1,-1],"loss_changes":[5.2979627E0,5.1931844E0,1.1575904E0,5.610215E0,2.3850293E0,0E0,0E0,5.2162747E0,2.8081799E0,2.2663708E0,0E0,5.124433E0,0E0,2.1904964E0,0E0,2.1043396E-1,0E0,5.101091E0,1.2494011E0,2.1638823E0,2.5923414E0,5.5298233E-1,0E0,0E0,0E0,0E0,0E0,0E0,0E0,0E0,0E0,0E0,0E0],"parents":[2147483647,0,0,1,1,2,2,3,3,4,4,7,7,8,8,9,9,11,11,13,13,15,15,17,17,18,18,19,19,20,20,21,21],"right_children":[2,4,6,8,10,-1,-1,12,14,16,-1,18,-1,20,-1,22,-1,24,26,28,30,32,-1,-1,-1,-1,-1,-1,-1,-1,-1,-1,-1],"split_conditions":[1E0,1E0,1E0,1E0,1E0,-2.8010467E-1,-7.2611277E-3,1E0,1E0,1E0,-1.6925219E-1,1E0,-2.5419572E-1,1E0,1.6985139E-1,1E0,-1.0753721E-1,1E0,1E0,1E0,1E0,1E0,1.0964722E-1,1.5418003E-4,1.7152105E-1,1.212478E-1,5.027607E-1,-1.2215606E-1,1.5510821E-1,1.9105808E-1,-1.5562212E-1,2.7375522E-1,6.632129E-2],"split_indices":[253,688,836,945,932,0,0,378,574,931,0,399,0,903,0,902,0,714,930,904,890,924,0,0,0,0,0,0,0,0,0,0,0],"split_type":[0,0,0,0,0,0,0,0,0,0,0,0,0,0,0,0,0,0,0,0,0,0,0,0,0,0,0,0,0,0,0,0,0],"sum_hessian":[4.534267E3,4.5260586E3,8.208482E0,4.507724E3,1.8334185E1,6.4166875E0,1.7917947E0,4.4347944E3,7.29296E1,1.7213596E1,1.1205876E0,4.4285796E3,6.2149663E0,7.003722E1,2.89239E0,1.5646151E1,1.5674465E0,4.4248145E3,3.7654343E0,6.3716267E1,6.3209486E0,1.1690965E1,3.9551864E0,4.4101255E3,1.4688966E1,2.700272E0,1.0651622E0,6.190177E1,1.8144972E0,4.1086435E0,2.212305E0,9.523707E0,2.1672566E0],"tree_param":{"num_deleted":"0","num_feature":"1261","num_nodes":"33","size_leaf_vector":"1"}},{"base_weights":[-1.2441991E-3,-2.144033E-3,3.7564558E-1,1.9522993E-2,-5.5405755E-2,2.204972E-2,-7.3448944E-1,-4.749833E-2,-2.574063E-1,2.040547E-2,1.1514242E0,-2.6635882E-1,2.6125444E-2,-3.9591495E-2,-6.14727E-1,2.4903253E-2,-3.6371088E-1,1.3906421E-1,4.834616E-1,-4.5840047E-2,6.453298E-1,-7.9520655E-1,8.685593E-2,6.789756E-3,2.3154755E-1,-1.3244127E-1,1.2340221E-1,-1.7903399E-2,7.67302E-2,2.9623732E-1,1.18148506E-1,-2.8844127E-1,-1.500608E-1],"categories":[],"categories_nodes":[],"categories_segments":[],"categories_sizes":[],"default_left":[0,0,0,0,0,0,0,0,0,0,0,0,0,0,0,0,0,0,0,0,0,0,0,0,0,0,0,0,0,0,0,0,0],"id":27,"left_children":[1,3,-1,5,7,9,11,13,-1,15,17,-1,-1,19,21,23,25,-1,-1,27,29,31,-1,-1,-1,-1,-1,-1,-1,-1,-1,-1,-1],"loss_changes":[5.1143675E0,5.2287955E0,0E0,6.1524115E0,8.274525E0,5.939278E0,1.4364538E0,5.799266E0,0E0,5.550332E0,7.2472954E-1,0E0,0E0,5.5148935E0,3.132248E0,5.361041E0,2.4227095E0,0E0,0E0,5.3200755E0,6.138401E-1,2.5923538E-1,0E0,0E0,0E0,0E0,0E0,0E0,0E0,0E0,0E0,0E0,0E0],"parents":[2147483647,0,0,1,1,3,3,4,4,5,5,6,6,7,7,9,9,10,10,13,13,14,14,15,15,16,16,19,19,20,20,21,21],"right_children":[2,4,-1,6,8,10,12,14,-1,16,18,-1,-1,20,22,24,26,-1,-1,28,30,32,-1,-1,-1,-1,-1,-1,-1,-1,-1,-1,-1],"split_conditions":[1E0,1E0,3.7564558E-1,1E0,1E0,1E0,1E0,1E0,-2.574063E-1,1E0,1E0,-2.6635882E-1,2.6125444E-2,1E0,1E0,1E0,1E0,1.3906421E-1,4.834616E-1,1E0,1E0,1E0,8.685593E-2,6.789756E-3,2.3154755E-1,-1.3244127E-1,1.2340221E-1,-1.7903399E-2,7.67302E-2,2.9623732E-1,1.18148506E-1,-2.8844127E-1,-1.500608E-1],"split_indices":[498,924,0,308,285,594,931,293,0,947,930,0,0,542,931,362,576,0,0,879,850,803,0,0,0,0,0,0,0,0,0,0,0],"split_type":[0,0,0,0,0,0,0,0,0,0,0,0,0,0,0,0,0,0,0,0,0,0,0,0,0,0,0,0,0,0,0,0,0],"sum_hessian":[4.531244E3,4.5289907E3,2.2531486E0,3.2198E3,1.3091908E3,3.210014E3,9.786136E0,1.2974672E3,1.172356E1,3.2063638E3,3.6500623E0,8.178643E0,1.6074917E0,1.2806849E3,1.6782198E1,3.170178E3,3.6185814E1,2.2675328E0,1.3825294E0,1.2700315E3,1.0653451E1,1.4090456E1,2.6917415E0,3.1615967E3,8.581337E0,3.327752E1,2.908296E0,1.2150847E3,5.4946777E1,3.273764E0,7.3796873E0,7.5666885E0,6.523768E0],"tree_param":{"num_deleted":"0","num_feature":"1261","num_nodes":"33","size_leaf_vector":"1"}},{"base_weights":[-1.0125511E-3,-1.966077E-3,1.1725724E0,-3.5342318E-3,7.0799977E-1,4.2049086E-1,8.59424E-2,-1.12776E-3,-4.6152997E-1,2.26078E-1,6.691943E-2,8.062005E-5,-2.760548E-1,-2.6247397E-1,-5.774134E-2,1.334686E-3,-2.6531902E-1,-2.7804706E-1,3.0219546E-1,8.4207056E-4,-2.2509502E-1,-1.6036236E-1,2.1099658E-1],"categories":[],"categories_nodes":[],"categories_segments":[],"categories_sizes":[],"default_left":[0,0,0,0,0,0,0,0,0,0,0,0,0,0,0,0,0,0,0,0,0,0,0],"id":28,"left_children":[1,3,5,7,9,-1,-1,11,13,-1,-1,15,-1,-1,17,19,-1,21,-1,-1,-1,-1,-1],"loss_changes":[5.066534E0,5.0379257E0,3.4451628E-1,4.9744363E0,5.239916E-2,0E0,0E0,4.9879208E0,3.8872695E0,0E0,0E0,4.977421E0,0E0,0E0,3.3314712E0,4.9607577E0,0E0,3.285628E0,0E0,0E0,0E0,0E0,0E0],"parents":[2147483647,0,0,1,1,2,2,3,3,4,4,7,7,8,8,11,11,14,14,15,15,17,17],"right_children":[2,4,6,8,10,-1,-1,12,14,-1,-1,16,-1,-1,18,20,-1,22,-1,-1,-1,-1,-1],"split_conditions":[1E0,1E0,1E0,1E0,1E0,4.2049086E-1,8.59424E-2,1E0,1E0,2.26078E-1,6.691943E-2,1E0,-2.760548E-1,-2.6247397E-1,1E0,1E0,-2.6531902E-1,1E0,3.0219546E-1,8.4207056E-4,-2.2509502E-1,-1.6036236E-1,2.1099658E-1],"split_indices":[417,109,931,639,924,0,0,761,803,0,0,280,0,0,932,294,0,931,0,0,0,0,0],"split_type":[0,0,0,0,0,0,0,0,0,0,0,0,0,0,0,0,0,0,0,0,0,0,0],"sum_hessian":[4.5244985E3,4.521823E3,2.67561E0,4.51285E3,8.97285E0,1.6637174E0,1.0118927E0,4.4902593E3,2.259095E1,7.6953263E0,1.2775235E0,4.485362E3,4.8974743E0,1.0586321E1,1.2004629E1,4.4800083E3,5.353538E0,1.0559378E1,1.4452516E0,4.472245E3,7.7632594E0,8.732366E0,1.8270117E0],"tree_param":{"num_deleted":"0","num_feature":"1261","num_nodes":"23","size_leaf_vector":"1"}},{"base_weights":[-9.2502526E-4,-1.9789087E-3,1.0093228E0,-3.2871363E-3,8.093664E-1,4.052399E-1,1.00643754E-1,-5.348927E-3,5.1218975E-1,3.1864786E-1,1.899579E-1,-7.63401E-3,4.6056736E-1,4.097152E-1,8.499091E-1,-8.695402E-2,1.654521E-1,-9.724055E-3,4.9103406E-1,3.0540794E-1,2.78975E-1,1.4146113E-1,1.6873999E-1,3.5301676E-1,3.576215E-2,-3.8792223E-3,9.3796864E-2,4.1892684E-1,-6.112786E-2,1.08620875E-1,1.2648354E-3,5.1923428E-2,7.526646E-3],"categories":[],"categories_nodes":[],"categories_segments":[],"categories_sizes":[],"default_left":[0,0,0,0,0,0,0,0,0,0,0,0,0,0,0,0,0,0,0,0,0,0,0,0,0,0,0,0,0,0,0,0,0],"id":29,"left_children":[1,3,5,7,9,-1,-1,11,13,-1,15,17,19,21,23,-1,-1,25,27,-1,29,31,-1,-1,-1,-1,-1,-1,-1,-1,-1,-1,-1],"loss_changes":[4.817512E0,4.799491E0,6.318469E-1,4.799138E0,9.380307E-1,0E0,0E0,4.7901845E0,2.7434444E-1,0E0,7.3709244E-1,4.668806E0,1.9389267E0,5.65079E-1,6.375148E-1,0E0,0E0,4.611889E0,1.204607E1,0E0,4.0808487E-1,2.1575108E-2,0E0,0E0,0E0,0E0,0E0,0E0,0E0,0E0,0E0,0E0,0E0],"parents":[2147483647,0,0,1,1,2,2,3,3,4,4,7,7,8,8,10,10,11,11,12,12,13,13,14,14,17,17,18,18,20,20,21,21],"right_children":[2,4,6,8,10,-1,-1,12,14,-1,16,18,20,22,24,-1,-1,26,28,-1,30,32,-1,-1,-1,-1,-1,-1,-1,-1,-1,-1,-1],"split_conditions":[1E0,1E0,1E0,1E0,1E0,4.052399E-1,1.00643754E-1,1E0,1E0,3.1864786E-1,1E0,1E0,1E0,1E0,1E0,-8.695402E-2,1.654521E-1,1E0,1E0,3.0540794E-1,1E0,1E0,1.6873999E-1,3.5301676E-1,3.576215E-2,-3.8792223E-3,9.3796864E-2,4.1892684E-1,-6.112786E-2,1.08620875E-1,1.2648354E-3,5.1923428E-2,7.526646E-3],"split_indices":[660,999,803,107,850,0,0,478,930,0,922,419,850,836,836,0,0,105,850,0,932,924,0,0,0,0,0,0,0,0,0,0,0],"split_type":[0,0,0,0,0,0,0,0,0,0,0,0,0,0,0,0,0,0,0,0,0,0,0,0,0,0,0,0,0,0,0,0,0],"sum_hessian":[4.521954E3,4.518239E3,3.715354E0,4.5119595E3,6.279216E0,1.7990491E0,1.9163047E0,4.4949707E3,1.6989239E1,3.9516652E0,2.327551E0,4.474011E3,2.0959143E1,1.4732211E1,2.257028E0,1.0854247E0,1.2421262E0,4.4563145E3,1.7697054E1,4.018104E0,1.694104E1,6.044051E0,8.68816E0,1.1377559E0,1.1192724E0,4.4133745E3,4.293952E1,7.245531E0,1.0451523E1,1.2763299E1,4.1777406E0,4.3696036E0,1.6744475E0],"tree_param":{"num_deleted":"0","num_feature":"1261","num_nodes":"33","size_leaf_vector":"1"}},{"base_weights":[-2.8915794E-4,1.965923E-3,-4.5937607E-1,3.3055882E-3,-7.709288E-1,-5.23369E-1,4.9124956E-2,4.8283744E-3,-6.699357E-1,-6.614937E-2,-2.5821918E-1,-5.9060127E-1,-7.8058853E-3,1.6091865E-1,-1.6091114E-1,6.1218897E-3,-2.3309696E-1,-2.7128264E-1,-7.6757155E-2,-4.9158004E-1,-2.588284E-1,7.1889735E-3,-2.8090566E-1,-3.610532E-1,-1.9063509E-1,2.47922E-3,-2.7771938E-1,-6.394256E-2,-2.2393382E-1],"categories":[],"categories_nodes":[],"categories_segments":[],"categories_sizes":[],"default_left":[0,0,0,0,0,0,0,0,0,0,0,0,0,0,0,0,0,0,0,0,0,0,0,0,0,0,0,0,0],"id":30,"left_children":[1,3,5,7,9,11,13,15,17,-1,-1,19,-1,-1,-1,21,-1,-1,-1,23,-1,25,-1,27,-1,-1,-1,-1,-1],"loss_changes":[4.6797876E0,4.6602316E0,7.447152E-1,4.6079955E0,1.9516039E-1,6.4375114E-1,1.2531534E0,4.5378E0,7.529168E-1,0E0,0E0,4.2604446E-2,0E0,0E0,0E0,4.508247E0,0E0,0E0,0E0,5.26762E-2,0E0,4.492895E0,0E0,4.219061E-1,0E0,0E0,0E0,0E0,0E0],"parents":[2147483647,0,0,1,1,2,2,3,3,4,4,5,5,6,6,7,7,8,8,11,11,15,15,19,19,21,21,23,23],"right_children":[2,4,6,8,10,12,14,16,18,-1,-1,20,-1,-1,-1,22,-1,-1,-1,24,-1,26,-1,28,-1,-1,-1,-1,-1],"split_conditions":[1E0,1E0,1E0,1E0,1E0,1E0,1E0,1E0,1E0,-6.614937E-2,-2.5821918E-1,1E0,-7.8058853E-3,1.6091865E-1,-1.6091114E-1,1E0,-2.3309696E-1,-2.7128264E-1,-7.6757155E-2,1E0,-2.588284E-1,1E0,-2.8090566E-1,1E0,-1.9063509E-1,2.47922E-3,-2.7771938E-1,-6.394256E-2,-2.2393382E-1],"split_indices":[953,368,912,428,884,6,803,782,803,0,0,816,0,0,0,407,0,0,0,922,0,686,0,924,0,0,0,0,0],"split_type":[0,0,0,0,0,0,0,0,0,0,0,0,0,0,0,0,0,0,0,0,0,0,0,0,0,0,0,0,0],"sum_hessian":[4.5184463E3,4.4973506E3,2.1095718E1,4.490563E3,6.7878094E0,1.8711685E1,2.3840337E0,4.4814194E3,9.143572E0,1.4367546E0,5.3510547E0,1.6318266E1,2.393419E0,1.34693E0,1.0371035E0,4.475008E3,6.4117146E0,5.0830765E0,4.0604954E0,1.4022583E1,2.2956831E0,4.470938E3,4.069694E0,9.192357E0,4.8302264E0,4.4667817E3,4.1563554E0,7.76518E0,1.4271766E0],"tree_param":{"num_deleted":"0","num_feature":"1261","num_nodes":"29","size_leaf_vector":"1"}},{"base_weights":[-8.7246025E-4,-2.3960127E-3,6.474992E-1,-3.4489126E-3,2.798971E-1,2.7911964E-1,-1.224623E-1,-4.778188E-3,7.320699E-1,1.0177623E-1,-1.7442155E-1,-6.597608E-3,5.3378683E-1,3.9706418E-1,6.412666E-2,-5.0760834E-3,-6.439036E-1,6.7795354E-1,2.6281057E-2,-1.115087E-3,-2.1522431E-1,-2.540734E-1,-9.496215E-2,8.656011E-2,2.2460775E-1],"categories":[],"categories_nodes":[],"categories_segments":[],"categories_sizes":[],"default_left":[0,0,0,0,0,0,0,0,0,0,0,0,0,0,0,0,0,0,0,0,0,0,0,0,0],"id":31,"left_children":[1,3,5,7,-1,-1,9,11,13,-1,-1,15,17,-1,-1,19,21,23,-1,-1,-1,-1,-1,-1,-1],"loss_changes":[4.46547E0,4.4443073E0,2.4222875E0,4.408314E0,0E0,0E0,9.8788434E-1,4.411118E0,2.2107239E0,0E0,0E0,4.3447237E0,9.155741E-1,0E0,0E0,4.329151E0,4.4113111E-1,9.545612E-2,0E0,0E0,0E0,0E0,0E0,0E0,0E0],"parents":[2147483647,0,0,1,1,2,2,3,3,6,6,7,7,8,8,11,11,12,12,15,15,16,16,17,17],"right_children":[2,4,6,8,-1,-1,10,12,14,-1,-1,16,18,-1,-1,20,22,24,-1,-1,-1,-1,-1,-1,-1],"split_conditions":[1E0,1E0,1E0,1E0,2.798971E-1,2.7911964E-1,1E0,1E0,1E0,1.0177623E-1,-1.7442155E-1,1E0,1E0,3.9706418E-1,6.412666E-2,1E0,1E0,1E0,2.6281057E-2,-1.115087E-3,-2.1522431E-1,-2.540734E-1,-9.496215E-2,8.656011E-2,2.2460775E-1],"split_indices":[597,544,931,659,0,0,924,298,803,0,0,438,924,0,0,311,803,932,0,0,0,0,0,0,0],"split_type":[0,0,0,0,0,0,0,0,0,0,0,0,0,0,0,0,0,0,0,0,0,0,0,0,0],"sum_hessian":[4.517922E3,4.5083247E3,9.597417E0,4.5042505E3,4.0738115E0,6.866247E0,2.73117E0,4.4971167E3,7.1339664E0,1.4914744E0,1.2396955E0,4.48296E3,1.4156916E1,2.606259E0,4.527707E0,4.473288E3,9.671706E0,1.030712E1,3.8497949E0,4.465773E3,7.5153847E0,4.990115E0,4.6815906E0,2.3652432E0,7.9418774E0],"tree_param":{"num_deleted":"0","num_feature":"1261","num_nodes":"25","size_leaf_vector":"1"}},{"base_weights":[-5.935339E-4,8.84804E-4,-6.499454E-1,2.3062825E-3,-2.0262763E-1,-2.5799146E-1,-3.3046108E-1,3.6271184E-3,-7.078947E-1,-4.7346435E-2,-1.6396299E-1,4.9330816E-3,-2.1266209E-1,-2.7202642E-1,-3.5300095E-2,3.6095388E-3,6.9743663E-1,1.5306879E-3,-1.8035074E-1,2.5300616E-1,-5.924016E-2],"categories":[],"categories_nodes":[],"categories_segments":[],"categories_sizes":[],"default_left":[0,0,0,0,0,0,0,0,0,0,0,0,0,0,0,0,0,0,0,0,0],"id":32,"left_children":[1,3,5,7,-1,-1,9,11,13,-1,-1,15,-1,-1,-1,17,19,-1,-1,-1,-1],"loss_changes":[4.335676E0,4.3340755E0,4.0419865E-1,4.222141E0,0E0,0E0,1.2612778E-1,4.1822243E0,8.7399435E-1,0E0,0E0,4.1069794E0,0E0,0E0,0E0,4.044E0,1.2827139E0,0E0,0E0,0E0,0E0],"parents":[2147483647,0,0,1,1,2,2,3,3,6,6,7,7,8,8,11,11,15,15,16,16],"right_children":[2,4,6,8,-1,-1,10,12,14,-1,-1,16,-1,-1,-1,18,20,-1,-1,-1,-1],"split_conditions":[1E0,1E0,1E0,1E0,-2.0262763E-1,-2.5799146E-1,1E0,1E0,1E0,-4.7346435E-2,-1.6396299E-1,1E0,-2.1266209E-1,-2.7202642E-1,-3.5300095E-2,1E0,1E0,1.5306879E-3,-1.8035074E-1,2.5300616E-1,-5.924016E-2],"split_indices":[424,247,803,693,0,0,924,38,803,0,0,405,0,0,0,265,932,0,0,0,0],"split_type":[0,0,0,0,0,0,0,0,0,0,0,0,0,0,0,0,0,0,0,0,0],"sum_hessian":[4.5149116E3,4.505653E3,9.259094E0,4.497197E3,8.455683E0,4.565818E0,4.6932764E0,4.489842E3,7.3553405E0,3.5707722E0,1.1225041E0,4.482618E3,7.223246E0,5.1005716E0,2.2547688E0,4.475071E3,7.547737E0,4.4650415E3,1.0029342E1,6.539116E0,1.0086217E0],"tree_param":{"num_deleted":"0","num_feature":"1261","num_nodes":"21","size_leaf_vector":"1"}},{"base_weights":[-8.4555923E-4,-2.05926E-3,7.3667E-1,-1.041969E-3,-2.6160488E-1,5.8802825E-1,-1.7008157E-1,-3.6991678E-5,-2.623509E-1,-6.986095E-2,9.4325095E-4,1.5091569E-3,-5.5822706E-1,2.4942951E-3,-2.619742E-1,-1.9536011E-1,-2.8031211E-2,1.2828363E-3,-1.4502385E-1],"categories":[],"categories_nodes":[],"categories_segments":[],"categories_sizes":[],"default_left":[0,0,0,0,0,0,0,0,0,0,0,0,0,0,0,0,0,0,0],"id":33,"left_children":[1,3,5,7,-1,-1,9,11,-1,-1,-1,13,15,17,-1,-1,-1,-1,-1],"loss_changes":[4.042599E0,3.9887872E0,8.564701E0,3.9535034E0,0E0,0E0,5.7091042E-2,3.8842802E0,0E0,0E0,0E0,3.869965E0,4.7638345E-1,3.8845048E0,0E0,0E0,0E0,0E0,0E0],"parents":[2147483647,0,0,1,1,2,2,3,3,6,6,7,7,11,11,12,12,13,13],"right_children":[2,4,6,8,-1,-1,10,12,-1,-1,-1,14,16,18,-1,-1,-1,-1,-1],"split_conditions":[1E0,1E0,1E0,1E0,-2.6160488E-1,5.8802825E-1,1E0,1E0,-2.623509E-1,-6.986095E-2,9.4325095E-4,1E0,1E0,1E0,-2.619742E-1,-1.9536011E-1,-2.8031211E-2,1.2828363E-3,-1.4502385E-1],"split_indices":[475,458,850,3,0,0,924,148,0,0,0,418,924,566,0,0,0,0,0],"split_type":[0,0,0,0,0,0,0,0,0,0,0,0,0,0,0,0,0,0,0],"sum_hessian":[4.5135547E3,4.507135E3,6.4200077E0,4.5028706E3,4.2642684E0,2.2383177E0,4.18169E0,4.4986943E3,4.1760173E0,2.8164954E0,1.3651948E0,4.487262E3,1.1432116E1,4.4832104E3,4.05178E0,9.192289E0,2.239826E0,4.4678184E3,1.5392331E1],"tree_param":{"num_deleted":"0","num_feature":"1261","num_nodes":"19","size_leaf_vector":"1"}},{"base_weights":[-9.322944E-4,2.1392365E-4,-2.2306308E-1,1.3375297E-3,-2.2668836E-1,2.4316292E-3,-2.3161256E-1,3.94599E-3,-5.564953E-1,4.968303E-3,-8.2409257E-1,-2.5940043E-1,-2.8552806E-1,1.8544196E-3,-2.0706116E-1,-2.8344423E-1,-8.569339E-2,-1.2982073E-1,7.45756E-2],"categories":[],"categories_nodes":[],"categories_segments":[],"categories_sizes":[],"default_left":[0,0,0,0,0,0,0,0,0,0,0,0,0,0,0,0,0,0,0],"id":34,"left_children":[1,3,-1,5,-1,7,-1,9,11,13,15,-1,17,-1,-1,-1,-1,-1,-1],"loss_changes":[3.8415885E0,3.82869E0,0E0,3.810704E0,0E0,3.8076675E0,0E0,3.800561E0,7.6816034E-1,3.7825365E0,8.998585E-2,0E0,7.335303E-1,0E0,0E0,0E0,0E0,0E0,0E0],"parents":[2147483647,0,0,1,1,3,3,5,5,7,7,8,8,9,9,10,10,12,12],"right_children":[2,4,-1,6,-1,8,-1,10,12,14,16,-1,18,-1,-1,-1,-1,-1,-1],"split_conditions":[1E0,1E0,-2.2306308E-1,1E0,-2.2668836E-1,1E0,-2.3161256E-1,1E0,1E0,1E0,1E0,-2.5940043E-1,1E0,1.8544196E-3,-2.0706116E-1,-2.8344423E-1,-8.569339E-2,-1.2982073E-1,7.45756E-2],"split_indices":[919,152,0,272,0,733,0,898,803,253,924,0,924,0,0,0,0,0,0],"split_type":[0,0,0,0,0,0,0,0,0,0,0,0,0,0,0,0,0,0,0],"sum_hessian":[4.511987E3,4.5060317E3,5.955333E0,4.50034E3,5.6918063E0,4.4949775E3,5.362188E0,4.4838223E3,1.11555605E1,4.4792856E3,4.536216E0,4.194306E0,6.961254E0,4.472472E3,6.813485E0,3.0889626E0,1.4472531E0,5.605986E0,1.355268E0],"tree_param":{"num_deleted":"0","num_feature":"1261","num_nodes":"19","size_leaf_vector":"1"}},{"base_weights":[-1.1613182E-3,-2.1197468E-3,8.750705E-1,-3.2101043E-3,7.6845896E-1,4.3914783E-1,8.514049E-2,-6.356728E-3,2.5473493E-1,-8.3121106E-2,1.0559644E0,-5.3117545E-3,-8.3450127E-1,2.1642767E-1,2.7898344E-1,3.5896778E-1,7.35696E-2,-2.6914936E-3,-3.2380968E-1,-2.885992E-1,-5.476088E-2,3.4793478E-1,9.912137E-2,-5.203918E-4,-2.5851306E-1,-1.1183866E-1,1.4537841E-1,1.8962546E-1,7.9000525E-2,-6.690821E-3,1.1273385E-1],"categories":[],"categories_nodes":[],"categories_segments":[],"categories_sizes":[],"default_left":[0,0,0,0,0,0,0,0,0,0,0,0,0,0,0,0,0,0,0,0,0,0,0,0,0,0,0,0,0,0,0],"id":35,"left_children":[1,3,5,7,9,-1,-1,11,13,-1,15,17,19,21,-1,-1,-1,23,25,-1,-1,27,29,-1,-1,-1,-1,-1,-1,-1,-1],"loss_changes":[3.7904904E0,3.7896063E0,1.3012972E0,3.6557105E0,2.208283E0,0E0,0E0,3.8454564E0,1.2027566E0,0E0,3.000121E-1,3.707973E0,2.898929E-1,7.780447E-1,0E0,0E0,0E0,3.6224124E0,1.6163628E0,0E0,0E0,4.2091775E-1,9.9053365E-1,0E0,0E0,0E0,0E0,0E0,0E0,0E0,0E0],"parents":[2147483647,0,0,1,1,2,2,3,3,4,4,7,7,8,8,10,10,11,11,12,12,13,13,17,17,18,18,21,21,22,22],"right_children":[2,4,6,8,10,-1,-1,12,14,-1,16,18,20,22,-1,-1,-1,24,26,-1,-1,28,30,-1,-1,-1,-1,-1,-1,-1,-1],"split_conditions":[1E0,1E0,1E0,1E0,1E0,4.3914783E-1,8.514049E-2,1E0,1E0,-8.3121106E-2,1E0,1E0,1E0,1E0,2.7898344E-1,3.5896778E-1,7.35696E-2,1E0,1E0,-2.885992E-1,-5.476088E-2,1E0,1E0,-5.203918E-4,-2.5851306E-1,-1.1183866E-1,1.4537841E-1,1.8962546E-1,7.9000525E-2,-6.690821E-3,1.1273385E-1],"split_indices":[619,106,849,429,836,0,0,858,928,0,931,296,920,850,0,0,0,761,929,0,0,884,932,0,0,0,0,0,0,0,0],"split_type":[0,0,0,0,0,0,0,0,0,0,0,0,0,0,0,0,0,0,0,0,0,0,0,0,0,0,0,0,0,0,0],"sum_hessian":[4.510324E3,4.5063926E3,3.9315436E0,4.5010195E3,5.3730416E0,1.2305188E0,2.7010248E0,4.447738E3,5.3281773E1,1.1666715E0,4.20637E0,4.4431377E3,4.600048E0,5.1670822E1,1.6109514E0,3.179152E0,1.0272181E0,4.407883E3,3.5254906E1,3.4498684E0,1.1501794E0,2.3433964E1,2.8236858E1,4.4039795E3,3.9035401E0,3.3748726E1,1.5061789E0,3.8915846E0,1.954238E1,2.0262928E1,7.97393E0],"tree_param":{"num_deleted":"0","num_feature":"1261","num_nodes":"31","size_leaf_vector":"1"}},{"base_weights":[-7.138609E-4,2.5325536E-4,-2.515462E-1,2.8544609E-3,-3.1131878E-1,4.0854514E-3,-2.5722346E-1,-3.6312607E-1,1.7592175E-1,5.3380798E-3,-7.75628E-1,-4.3626568E-1,3.0762178E-1,7.2883726E-3,-4.4343087E-1,-2.624589E-1,-7.3671736E-2,-4.7506604E-1,9.708995E-2,1.7317128E-1,-5.1493283E-2,2.5948954E-3,-2.066874E-1,-1.6043873E-1,1.8556468E-2,-1.5387666E-1,6.38893E-2],"categories":[],"categories_nodes":[],"categories_segments":[],"categories_sizes":[],"default_left":[0,0,0,0,0,0,0,0,0,0,0,0,0,0,0,0,0,0,0,0,0,0,0,0,0,0,0],"id":36,"left_children":[1,3,-1,5,7,9,-1,11,-1,13,15,17,19,21,23,-1,-1,25,-1,-1,-1,-1,-1,-1,-1,-1,-1],"loss_changes":[3.6521683E0,3.6505182E0,0E0,4.7338023E0,1.9473858E0,4.36161E0,0E0,1.894208E0,0E0,3.9026475E0,1.6192055E-1,1.1197138E0,6.306561E-1,4.211285E0,9.2381954E-1,0E0,0E0,9.316578E-1,0E0,0E0,0E0,0E0,0E0,0E0,0E0,0E0,0E0],"parents":[2147483647,0,0,1,1,3,3,4,4,5,5,7,7,9,9,10,10,11,11,12,12,13,13,14,14,17,17],"right_children":[2,4,-1,6,8,10,-1,12,-1,14,16,18,20,22,24,-1,-1,26,-1,-1,-1,-1,-1,-1,-1,-1,-1],"split_conditions":[1E0,1E0,-2.515462E-1,1E0,1E0,1E0,-2.5722346E-1,1E0,1.7592175E-1,1E0,1E0,1E0,1E0,1E0,1E0,-2.624589E-1,-7.3671736E-2,1E0,9.708995E-2,1.7317128E-1,-5.1493283E-2,2.5948954E-3,-2.066874E-1,-1.6043873E-1,1.8556468E-2,-1.5387666E-1,6.38893E-2],"split_indices":[280,291,0,814,935,311,0,932,0,899,930,944,924,430,930,0,0,939,0,0,0,0,0,0,0,0,0],"split_type":[0,0,0,0,0,0,0,0,0,0,0,0,0,0,0,0,0,0,0,0,0,0,0,0,0,0,0],"sum_hessian":[4.5063394E3,4.502142E3,4.1975245E0,4.465849E3,3.6292965E1,4.4604614E3,5.3874097E0,3.48758E1,1.4171633E0,4.454299E3,6.1627836E0,3.1761997E1,3.1138055E0,4.436004E3,1.8294552E1,4.6430225E0,1.519761E0,3.0575638E1,1.1863589E0,1.8619354E0,1.2518702E0,4.4283335E3,7.670557E0,1.5443656E1,2.8508966E0,2.9222305E1,1.3533338E0],"tree_param":{"num_deleted":"0","num_feature":"1261","num_nodes":"27","size_leaf_vector":"1"}},{"base_weights":[-9.0705964E-4,9.397761E-4,-4.3313643E-1,-1.3165113E-3,5.1582E-1,-5.285305E-1,1.3043505E-1,-1.0800435E-2,9.024068E-2,5.862332E-1,-7.5719066E-2,-3.8371617E-1,-2.7185747E-1,-7.825485E-3,-6.432642E-1,1.3046414E-1,-5.791773E-1,6.429398E-1,-5.006845E-2,-2.2199212E-1,-2.0820498E-1,-1.0249742E-2,5.5487674E-1,-7.483807E-1,1.20164774E-1,1.1811362E-1,4.6942508E-1,-6.383544E-1,1.16092764E-1,7.334982E-1,5.8413144E-2,-6.8154305E-2,-3.8994744E-1,-1.4211123E-3,-8.2630925E-2,4.414025E-1,1.1702E-1,-2.564249E-1,-1.0393557E-1,3.856822E-2,-1.9565095E-1,-2.0663737E-1,5.3581048E-2,2.5899532E-1,1.975252E-2,1.09441034E-1,-7.9753004E-2,-5.8851764E-2,-1.5661874E-1],"categories":[],"categories_nodes":[],"categories_segments":[],"categories_sizes":[],"default_left":[0,0,0,0,0,0,0,0,0,0,0,0,0,0,0,0,0,0,0,0,0,0,0,0,0,0,0,0,0,0,0,0,0,0,0,0,0,0,0,0,0,0,0,0,0,0,0,0,0],"id":37,"left_children":[1,3,5,7,9,11,-1,13,15,17,-1,19,-1,21,23,25,27,29,-1,31,-1,33,35,37,-1,39,-1,41,-1,43,-1,45,47,-1,-1,-1,-1,-1,-1,-1,-1,-1,-1,-1,-1,-1,-1,-1,-1],"loss_changes":[3.596657E0,5.2132607E0,1.816952E0,3.8809657E0,1.2070608E0,6.215558E-1,0E0,7.614975E0,1.1371635E1,8.861289E-1,0E0,5.758481E-1,0E0,5.505762E0,2.3787823E0,6.8398314E0,1.6170769E0,5.5394363E-1,0E0,2.5846547E-1,0E0,5.8690815E0,2.041244E0,4.5473957E-1,0E0,3.2564812E0,0E0,1.0689611E0,0E0,1.1495833E0,0E0,6.9352925E-1,2.7180552E-2,0E0,0E0,0E0,0E0,0E0,0E0,0E0,0E0,0E0,0E0,0E0,0E0,0E0,0E0,0E0,0E0],"parents":[2147483647,0,0,1,1,2,2,3,3,4,4,5,5,7,7,8,8,9,9,11,11,13,13,14,14,15,15,16,16,17,17,19,19,21,21,22,22,23,23,25,25,27,27,29,29,31,31,32,32],"right_children":[2,4,6,8,10,12,-1,14,16,18,-1,20,-1,22,24,26,28,30,-1,32,-1,34,36,38,-1,40,-1,42,-1,44,-1,46,48,-1,-1,-1,-1,-1,-1,-1,-1,-1,-1,-1,-1,-1,-1,-1,-1],"split_conditions":[1E0,1E0,1E0,1E0,1E0,1E0,1.3043505E-1,1E0,1E0,1E0,-7.5719066E-2,1E0,-2.7185747E-1,1E0,1E0,1E0,1E0,1E0,-5.006845E-2,1E0,-2.0820498E-1,1E0,1E0,1E0,1.20164774E-1,1E0,4.6942508E-1,1E0,1.16092764E-1,1E0,5.8413144E-2,1E0,1E0,-1.4211123E-3,-8.2630925E-2,4.414025E-1,1.1702E-1,-2.564249E-1,-1.0393557E-1,3.856822E-2,-1.9565095E-1,-2.0663737E-1,5.3581048E-2,2.5899532E-1,1.975252E-2,1.09441034E-1,-7.9753004E-2,-5.8851764E-2,-1.5661874E-1],"split_indices":[906,811,836,816,911,68,0,917,922,74,0,924,0,701,663,939,939,72,0,850,0,914,850,667,0,758,0,934,0,924,0,816,931,0,0,0,0,0,0,0,0,0,0,0,0,0,0,0,0],"split_type":[0,0,0,0,0,0,0,0,0,0,0,0,0,0,0,0,0,0,0,0,0,0,0,0,0,0,0,0,0,0,0,0,0,0,0,0,0,0,0,0,0,0,0,0,0,0,0,0,0],"sum_hessian":[4.5041304E3,4.4859604E3,1.8169847E1,4.467381E3,1.8579332E1,1.6722858E1,1.4469905E0,4.0488628E3,4.185182E2,1.7236372E1,1.3429601E0,1.3545039E1,3.1778183E0,4.0309148E3,1.7948032E1,3.9555548E2,2.2962713E1,1.6165503E1,1.0708692E0,1.0031945E1,3.5130937E0,4.0146006E3,1.6314083E1,1.6563087E1,1.3849434E0,3.9325156E2,2.3039045E0,2.1957115E1,1.0055964E0,1.2918972E1,3.2465317E0,5.9697614E0,4.0621843E0,3.9338418E3,8.0758865E1,1.2783002E0,1.5035782E1,1.2206157E1,4.356931E0,3.8881134E2,4.44023E0,2.0828127E1,1.1289895E0,1.0570567E1,2.3484046E0,1.6063539E0,4.3634076E0,2.6541576E0,1.4080266E0],"tree_param":{"num_deleted":"0","num_feature":"1261","num_nodes":"49","size_leaf_vector":"1"}},{"base_weights":[-9.276938E-4,-1.7098497E-3,3.0657667E-1,-6.7213E-4,-7.676149E-1,3.739412E-4,-7.530539E-1,-5.5194017E-2,-2.584418E-1,1.7357391E-3,-5.749467E-1,-2.6251134E-1,-5.0737485E-2,4.0818094E-3,-3.323122E-1,-2.0134689E-1,-6.1664473E-2,3.7033143E-3,-2.771605E-2,-1.3371068E-1,4.018198E-1],"categories":[],"categories_nodes":[],"categories_segments":[],"categories_sizes":[],"default_left":[0,0,0,0,0,0,0,0,0,0,0,0,0,0,0,0,0,0,0,0,0],"id":38,"left_children":[1,3,-1,5,7,9,11,-1,-1,13,15,-1,-1,17,19,-1,-1,-1,-1,-1,-1],"loss_changes":[3.60519E0,3.5774128E0,0E0,3.5393167E0,1.7511916E-1,3.519852E0,2.9674506E-1,0E0,0E0,3.5137107E0,2.3908806E-1,0E0,0E0,3.54933E0,6.5241265E0,0E0,0E0,0E0,0E0,0E0,0E0],"parents":[2147483647,0,0,1,1,3,3,4,4,5,5,6,6,9,9,10,10,13,13,14,14],"right_children":[2,4,-1,6,8,10,12,-1,-1,14,16,-1,-1,18,20,-1,-1,-1,-1,-1,-1],"split_conditions":[1E0,1E0,3.0657667E-1,1E0,1E0,1E0,1E0,-5.5194017E-2,-2.584418E-1,1E0,1E0,-2.6251134E-1,-5.0737485E-2,1E0,1E0,-2.0134689E-1,-6.1664473E-2,3.7033143E-3,-2.771605E-2,-1.3371068E-1,4.018198E-1],"split_indices":[491,378,0,749,884,154,803,0,0,949,924,0,0,842,913,0,0,0,0,0,0],"split_type":[0,0,0,0,0,0,0,0,0,0,0,0,0,0,0,0,0,0,0,0,0],"sum_hessian":[4.503145E3,4.5007017E3,2.4432814E0,4.495612E3,5.0901966E0,4.490368E3,5.243664E0,1.1152774E0,3.974919E0,4.480759E3,9.609081E0,3.9251559E0,1.3185077E0,4.45049E3,3.02687E1,6.9754424E0,2.6336389E0,4.10018E3,3.503098E2,2.9032825E1,1.2358742E0],"tree_param":{"num_deleted":"0","num_feature":"1261","num_nodes":"21","size_leaf_vector":"1"}},{"base_weights":[-8.777059E-4,8.3857984E-4,-4.525687E-1,1.8971273E-3,-7.203652E-1,-2.2834313E-1,-3.171868E-1,2.7460586E-3,-2.6730156E-1,-5.8268886E-2,-2.464403E-1,-1.1242741E-1,-1.0152977E-1,5.2356287E-3,-3.0088338E-1,1.5742483E-2,-6.856949E-2,-2.0637629E-3,1.1184255E-1,-5.454567E-1,8.925224E-2,-1.0377043E-3,2.5534436E-1,3.8119655E-2,-1.8013965E-1,-1.7035635E-1,-1.1518352E-2,1.4670798E-1,-1.5703943E-1],"categories":[],"categories_nodes":[],"categories_segments":[],"categories_sizes":[],"default_left":[0,0,0,0,0,0,0,0,0,0,0,0,0,0,0,0,0,0,0,0,0,0,0,0,0,0,0,0,0],"id":39,"left_children":[1,3,5,7,9,-1,11,13,-1,-1,-1,-1,15,17,19,-1,-1,21,23,25,27,-1,-1,-1,-1,-1,-1,-1,-1],"loss_changes":[3.4891677E0,3.4247973E0,4.7030234E-1,3.3973665E0,